{"learner":{"attributes":{},"feature_names":["Gender","Tumor.size","Radiation","Surgery","Bone.metastasis","Lung.metastasis","T.stage"],"feature_types":["int","int","int","int","int","int","int"],"gradient_booster":{"model":{"gbtree_model_param":{"num_parallel_tree":"1","num_trees":"300"},"iteration_indptr":[0,1,2,3,4,5,6,7,8,9,10,11,12,13,14,15,16,17,18,19,20,21,22,23,24,25,26,27,28,29,30,31,32,33,34,35,36,37,38,39,40,41,42,43,44,45,46,47,48,49,50,51,52,53,54,55,56,57,58,59,60,61,62,63,64,65,66,67,68,69,70,71,72,73,74,75,76,77,78,79,80,81,82,83,84,85,86,87,88,89,90,91,92,93,94,95,96,97,98,99,100,101,102,103,104,105,106,107,108,109,110,111,112,113,114,115,116,117,118,119,120,121,122,123,124,125,126,127,128,129,130,131,132,133,134,135,136,137,138,139,140,141,142,143,144,145,146,147,148,149,150,151,152,153,154,155,156,157,158,159,160,161,162,163,164,165,166,167,168,169,170,171,172,173,174,175,176,177,178,179,180,181,182,183,184,185,186,187,188,189,190,191,192,193,194,195,196,197,198,199,200,201,202,203,204,205,206,207,208,209,210,211,212,213,214,215,216,217,218,219,220,221,222,223,224,225,226,227,228,229,230,231,232,233,234,235,236,237,238,239,240,241,242,243,244,245,246,247,248,249,250,251,252,253,254,255,256,257,258,259,260,261,262,263,264,265,266,267,268,269,270,271,272,273,274,275,276,277,278,279,280,281,282,283,284,285,286,287,288,289,290,291,292,293,294,295,296,297,298,299,300],"tree_info":[0,0,0,0,0,0,0,0,0,0,0,0,0,0,0,0,0,0,0,0,0,0,0,0,0,0,0,0,0,0,0,0,0,0,0,0,0,0,0,0,0,0,0,0,0,0,0,0,0,0,0,0,0,0,0,0,0,0,0,0,0,0,0,0,0,0,0,0,0,0,0,0,0,0,0,0,0,0,0,0,0,0,0,0,0,0,0,0,0,0,0,0,0,0,0,0,0,0,0,0,0,0,0,0,0,0,0,0,0,0,0,0,0,0,0,0,0,0,0,0,0,0,0,0,0,0,0,0,0,0,0,0,0,0,0,0,0,0,0,0,0,0,0,0,0,0,0,0,0,0,0,0,0,0,0,0,0,0,0,0,0,0,0,0,0,0,0,0,0,0,0,0,0,0,0,0,0,0,0,0,0,0,0,0,0,0,0,0,0,0,0,0,0,0,0,0,0,0,0,0,0,0,0,0,0,0,0,0,0,0,0,0,0,0,0,0,0,0,0,0,0,0,0,0,0,0,0,0,0,0,0,0,0,0,0,0,0,0,0,0,0,0,0,0,0,0,0,0,0,0,0,0,0,0,0,0,0,0,0,0,0,0,0,0,0,0,0,0,0,0,0,0,0,0,0,0,0,0,0,0,0,0,0,0,0,0,0,0,0,0,0,0,0,0,0,0,0,0,0,0],"trees":[{"base_weights":[-1.21331E-7,2.318272E0,-6.682439E-1,1.9758326E0,5.805518E-1,-6.892948E-1,2.3933907E-1,2.7472207E-1,7.478406E-2,-9.673198E-2,-5.0017007E-2],"categories":[],"categories_nodes":[],"categories_segments":[],"categories_sizes":[],"default_left":[0,0,0,0,0,0,0,0,0,0,0],"id":0,"left_children":[1,3,5,7,-1,9,-1,-1,-1,-1,-1],"loss_changes":[7.83423E2,1.23653625E2,2.6949799E1,9.6982666E1,0E0,2.0056961E1,0E0,0E0,0E0,0E0,0E0],"parents":[2147483647,0,0,1,1,2,2,3,3,5,5],"right_children":[2,4,6,8,-1,10,-1,-1,-1,-1,-1],"split_conditions":[1E0,1E0,1E0,1E0,5.805518E-1,1E0,2.3933907E-1,2.7472207E-1,7.478406E-2,-9.673198E-2,-5.0017007E-2],"split_indices":[3,5,5,2,0,6,0,0,0,0,0],"split_type":[0,0,0,0,0,0,0,0,0,0,0],"sum_hessian":[5.0370465E2,1.1215325E2,3.9155142E2,1.0355133E2,8.601917E0,3.896472E2,1.9042413E0,6.2839966E1,4.0711365E1,1.5608212E2,2.3356505E2],"tree_param":{"num_deleted":"0","num_feature":"7","num_nodes":"11","size_leaf_vector":"1"}},{"base_weights":[-7.0559024E-3,1.6991266E0,-6.3925856E-1,2.1631045E0,8.0779755E-1,-6.608048E-1,1.9360521E-1,1.10313535E-1,2.7484593E-1,5.618403E-2,3.0158743E-1,-9.509384E-2,-4.7122158E-2],"categories":[],"categories_nodes":[],"categories_segments":[],"categories_sizes":[],"default_left":[0,0,0,0,0,0,0,0,0,0,0,0,0],"id":1,"left_children":[1,3,5,7,9,11,-1,-1,-1,-1,-1,-1,-1],"loss_changes":[5.4787445E2,5.5043518E1,2.1843018E1,5.2632782E1,2.470386E1,1.9808151E1,0E0,0E0,0E0,0E0,0E0,0E0,0E0],"parents":[2147483647,0,0,1,1,2,2,3,3,4,4,5,5],"right_children":[2,4,6,8,10,12,-1,-1,-1,-1,-1,-1,-1],"split_conditions":[1E0,1E0,1E0,1E0,1E0,1E0,1.9360521E-1,1.10313535E-1,2.7484593E-1,5.618403E-2,3.0158743E-1,-9.509384E-2,-4.7122158E-2],"split_indices":[3,2,5,0,4,6,0,0,0,0,0,0,0],"split_type":[0,0,0,0,0,0,0,0,0,0,0,0,0],"sum_hessian":[5.0591757E2,1.3632292E2,3.6959464E2,8.8715546E1,4.760738E1,3.6726532E2,2.3293078E0,3.258844E1,5.6127106E1,4.396462E1,3.642763E0,1.4355554E2,2.2370978E2],"tree_param":{"num_deleted":"0","num_feature":"7","num_nodes":"13","size_leaf_vector":"1"}},{"base_weights":[-1.0679053E-2,1.3285109E0,-6.1038446E-1,1.1497777E0,2.7377096E-1,-9.2020476E-1,-4.177886E-1,7.826647E-2,1.6940019E-1,-9.537999E-2,-5.8846045E-2,-7.6807546E-3,-9.404143E-2],"categories":[],"categories_nodes":[],"categories_segments":[],"categories_sizes":[],"default_left":[0,0,0,0,0,0,0,0,0,0,0,0,0],"id":2,"left_children":[1,3,5,7,-1,9,11,-1,-1,-1,-1,-1,-1],"loss_changes":[4.0761362E2,3.6392273E1,2.0532486E1,2.6852707E1,0E0,9.270935E-1,3.877614E1,0E0,0E0,0E0,0E0,0E0,0E0],"parents":[2147483647,0,0,1,1,2,2,3,3,5,5,6,6],"right_children":[2,4,6,8,-1,10,12,-1,-1,-1,-1,-1,-1],"split_conditions":[1E0,1E0,1E0,1E0,2.7377096E-1,1E0,1E0,7.826647E-2,1.6940019E-1,-9.537999E-2,-5.8846045E-2,-7.6807546E-3,-9.404143E-2],"split_indices":[3,5,6,1,0,1,2,0,0,0,0,0,0],"split_type":[0,0,0,0,0,0,0,0,0,0,0,0,0],"sum_hessian":[5.055283E2,1.5598534E2,3.4954297E2,1.4003957E2,1.5945767E1,1.3254533E2,2.1699762E2,8.508356E1,5.4956013E1,1.1865433E2,1.3891016E1,1.3201376E2,8.4983864E1],"tree_param":{"num_deleted":"0","num_feature":"7","num_nodes":"13","size_leaf_vector":"1"}},{"base_weights":[-1.3286117E-2,1.0777199E0,-5.821571E-1,1.3496896E0,5.012063E-1,-9.0278846E-1,-3.9161348E-1,7.059364E-2,1.665496E-1,3.2151405E-2,1.923482E-1,-9.385776E-2,-5.615559E-2,-6.96706E-3,-9.2336975E-2],"categories":[],"categories_nodes":[],"categories_segments":[],"categories_sizes":[],"default_left":[0,0,0,0,0,0,0,0,0,0,0,0,0,0,0],"id":3,"left_children":[1,3,5,7,9,11,13,-1,-1,-1,-1,-1,-1,-1,-1],"loss_changes":[3.1408743E2,2.6518463E1,1.9967285E1,2.2662964E1,1.399662E1,9.7772217E-1,3.5954525E1,0E0,0E0,0E0,0E0,0E0,0E0,0E0,0E0],"parents":[2147483647,0,0,1,1,2,2,3,3,4,4,5,5,6,6],"right_children":[2,4,6,8,10,12,14,-1,-1,-1,-1,-1,-1,-1,-1],"split_conditions":[1E0,1E0,1E0,1E0,1E0,1E0,1E0,7.059364E-2,1.665496E-1,3.2151405E-2,1.923482E-1,-9.385776E-2,-5.615559E-2,-6.96706E-3,-9.2336975E-2],"split_indices":[3,2,6,0,4,1,2,0,0,0,0,0,0,0,0],"split_type":[0,0,0,0,0,0,0,0,0,0,0,0,0,0,0],"sum_hessian":[5.0405795E2,1.7244354E2,3.316144E2,1.16257904E2,5.6185642E1,1.2221795E2,2.0939645E2,3.932713E1,7.693077E1,5.0971848E1,5.2137966E0,1.0903193E2,1.3186017E1,1.3113438E2,7.8262085E1],"tree_param":{"num_deleted":"0","num_feature":"7","num_nodes":"15","size_leaf_vector":"1"}},{"base_weights":[-1.4951866E-2,8.955079E-1,-5.541768E-1,7.718823E-1,1.8040976E-1,-8.85087E-1,-3.6639768E-1,9.766821E-2,3.1981688E-2,-9.2318796E-2,-5.3491212E-2,-6.315652E-3,-9.0615086E-2],"categories":[],"categories_nodes":[],"categories_segments":[],"categories_sizes":[],"default_left":[0,0,0,0,0,0,0,0,0,0,0,0,0],"id":4,"left_children":[1,3,5,7,-1,9,11,-1,-1,-1,-1,-1,-1],"loss_changes":[2.4721053E2,1.9646362E1,1.9325478E1,1.5113701E1,0E0,1.0241699E0,3.324276E1,0E0,0E0,0E0,0E0,0E0,0E0],"parents":[2147483647,0,0,1,1,2,2,3,3,5,5,6,6],"right_children":[2,4,6,8,-1,10,12,-1,-1,-1,-1,-1,-1],"split_conditions":[1E0,1E0,1E0,1E0,1.8040976E-1,1E0,1E0,9.766821E-2,3.1981688E-2,-9.2318796E-2,-5.3491212E-2,-6.315652E-3,-9.0615086E-2],"split_indices":[3,5,6,2,0,1,2,0,0,0,0,0,0],"split_type":[0,0,0,0,0,0,0,0,0,0,0,0,0],"sum_hessian":[5.015318E2,1.8630408E2,3.1522772E2,1.6561899E2,2.0685102E1,1.1277631E2,2.024514E2,1.1318303E2,5.243595E1,1.00233955E2,1.2542363E1,1.3034096E2,7.2110435E1],"tree_param":{"num_deleted":"0","num_feature":"7","num_nodes":"13","size_leaf_vector":"1"}},{"base_weights":[-1.5952753E-2,7.568401E-1,-5.264971E-1,5.2193874E-1,1.0889227E0,-8.670085E-1,-3.4217373E-1,7.063597E-2,1.1481007E-2,9.788313E-2,2.1350582E-1,-9.075261E-2,-5.0859947E-2,-5.7217884E-3,-8.886513E-2],"categories":[],"categories_nodes":[],"categories_segments":[],"categories_sizes":[],"default_left":[0,0,0,0,0,0,0,0,0,0,0,0,0,0,0],"id":5,"left_children":[1,3,5,7,9,11,13,-1,-1,-1,-1,-1,-1,-1,-1],"loss_changes":[1.9740161E2,1.4958992E1,1.8612053E1,8.816616E0,7.301895E0,1.0654526E0,3.0643888E1,0E0,0E0,0E0,0E0,0E0,0E0,0E0,0E0],"parents":[2147483647,0,0,1,1,2,2,3,3,4,4,5,5,6,6],"right_children":[2,4,6,8,10,12,14,-1,-1,-1,-1,-1,-1,-1,-1],"split_conditions":[1E0,1E0,1E0,1E0,1E0,1E0,1E0,7.063597E-2,1.1481007E-2,9.788313E-2,2.1350582E-1,-9.075261E-2,-5.0859947E-2,-5.7217884E-3,-8.886513E-2],"split_indices":[3,1,6,2,4,1,2,0,0,0,0,0,0,0,0],"split_type":[0,0,0,0,0,0,0,0,0,0,0,0,0,0,0],"sum_hessian":[4.9831723E2,1.9805142E2,3.0026584E2,1.1750499E2,8.0546425E1,1.041534E2,1.9611243E2,8.0365906E1,3.7139088E1,7.4628456E1,5.9179673E0,9.2198425E1,1.1954969E1,1.2962521E2,6.6487206E1],"tree_param":{"num_deleted":"0","num_feature":"7","num_nodes":"15","size_leaf_vector":"1"}},{"base_weights":[-1.6283516E-2,6.472456E-1,-4.9918237E-1,5.5061144E-1,1.3423714E-1,-5.254511E-1,1.7931172E-1,3.4792133E-2,8.2417324E-2,-8.682773E-2,-3.4701444E-2],"categories":[],"categories_nodes":[],"categories_segments":[],"categories_sizes":[],"default_left":[0,0,0,0,0,0,0,0,0,0,0],"id":6,"left_children":[1,3,5,7,-1,9,-1,-1,-1,-1,-1],"loss_changes":[1.59238E2,1.3323166E1,1.8261337E1,9.998333E0,0E0,1.7141022E1,0E0,0E0,0E0,0E0,0E0],"parents":[2147483647,0,0,1,1,2,2,3,3,5,5],"right_children":[2,4,6,8,-1,10,-1,-1,-1,-1,-1],"split_conditions":[1E0,1E0,1E0,1E0,1.3423714E-1,1E0,1.7931172E-1,3.4792133E-2,8.2417324E-2,-8.682773E-2,-3.4701444E-2],"split_indices":[3,5,5,1,0,6,0,0,0,0,0],"split_type":[0,0,0,0,0,0,0,0,0,0,0],"sum_hessian":[4.9496213E2,2.083448E2,2.8661734E2,1.8448973E2,2.3855059E1,2.8413208E2,2.485258E0,1.07276886E2,7.721285E1,9.5939606E1,1.8819246E2],"tree_param":{"num_deleted":"0","num_feature":"7","num_nodes":"11","size_leaf_vector":"1"}},{"base_weights":[-1.5757583E-2,5.5865943E-1,-4.7144046E-1,4.7650367E-1,1.1356968E-1,-8.290848E-1,-2.9583538E-1,4.142763E-2,1.2838526E-1,-8.7577514E-2,-4.3632787E-2,-2.185222E-3,-8.637967E-2],"categories":[],"categories_nodes":[],"categories_segments":[],"categories_sizes":[],"default_left":[0,0,0,0,0,0,0,0,0,0,0,0,0],"id":7,"left_children":[1,3,5,7,-1,9,11,-1,-1,-1,-1,-1,-1],"loss_changes":[1.2906201E2,9.799736E0,1.702166E1,9.147606E0,0E0,1.2679939E0,2.891702E1,0E0,0E0,0E0,0E0,0E0,0E0],"parents":[2147483647,0,0,1,1,2,2,3,3,5,5,6,6],"right_children":[2,4,6,8,-1,10,12,-1,-1,-1,-1,-1,-1],"split_conditions":[1E0,1E0,1E0,1E0,1.1356968E-1,1E0,1E0,4.142763E-2,1.2838526E-1,-8.7577514E-2,-4.3632787E-2,-2.185222E-3,-8.637967E-2],"split_indices":[3,5,6,4,0,1,2,0,0,0,0,0,0],"split_type":[0,0,0,0,0,0,0,0,0,0,0,0,0],"sum_hessian":[4.9106363E2,2.1713069E2,2.7393292E2,1.9166776E2,2.546294E1,8.898375E1,1.8494917E2,1.7935675E2,1.2311006E1,7.843027E1,1.0553483E1,1.2546408E2,5.9485092E1],"tree_param":{"num_deleted":"0","num_feature":"7","num_nodes":"13","size_leaf_vector":"1"}},{"base_weights":[-1.5648376E-2,4.8604164E-1,-4.4510144E-1,6.19317E-1,1.7583276E-1,-8.094312E-1,-2.7482665E-1,2.240167E-2,8.078739E-2,6.3384282E-3,9.730723E-2,-8.587891E-2,-4.1195877E-2,-1.9723785E-3,-8.4527515E-2],"categories":[],"categories_nodes":[],"categories_segments":[],"categories_sizes":[],"default_left":[0,0,0,0,0,0,0,0,0,0,0,0,0,0,0],"id":8,"left_children":[1,3,5,7,9,11,13,-1,-1,-1,-1,-1,-1,-1,-1],"loss_changes":[1.0543621E2,9.223015E0,1.6133335E1,1.1557724E1,6.1445966E0,1.2835655E0,2.6350555E1,0E0,0E0,0E0,0E0,0E0,0E0,0E0,0E0],"parents":[2147483647,0,0,1,1,2,2,3,3,4,4,5,5,6,6],"right_children":[2,4,6,8,10,12,14,-1,-1,-1,-1,-1,-1,-1,-1],"split_conditions":[1E0,1E0,1E0,1E0,1E0,1E0,1E0,2.240167E-2,8.078739E-2,6.3384282E-3,9.730723E-2,-8.587891E-2,-4.1195877E-2,-1.9723785E-3,-8.4527515E-2],"split_indices":[3,2,6,0,4,1,2,0,0,0,0,0,0,0,0],"split_type":[0,0,0,0,0,0,0,0,0,0,0,0,0,0,0],"sum_hessian":[4.8736734E2,2.2471822E2,2.6264914E2,1.5648917E2,6.822906E1,8.245977E1,1.8018936E2,5.124487E1,1.0524429E2,6.074118E1,7.487876E0,7.231866E1,1.0141114E1,1.252241E2,5.496526E1],"tree_param":{"num_deleted":"0","num_feature":"7","num_nodes":"15","size_leaf_vector":"1"}},{"base_weights":[-1.5563781E-2,4.2515254E-1,-4.1936147E-1,2.70876E-1,6.32432E-1,-7.891703E-1,-2.5489357E-1,3.9441194E-2,-1.4208886E-3,5.641643E-2,1.2544148E-1,-8.4122166E-2,-3.882602E-2,-1.7799188E-3,-8.2621515E-2],"categories":[],"categories_nodes":[],"categories_segments":[],"categories_sizes":[],"default_left":[0,0,0,0,0,0,0,0,0,0,0,0,0,0,0],"id":9,"left_children":[1,3,5,7,9,11,13,-1,-1,-1,-1,-1,-1,-1,-1],"loss_changes":[8.641027E1,7.2535477E0,1.5209457E1,4.75513E0,3.4672775E0,1.2910576E0,2.3941433E1,0E0,0E0,0E0,0E0,0E0,0E0,0E0,0E0],"parents":[2147483647,0,0,1,1,2,2,3,3,4,4,5,5,6,6],"right_children":[2,4,6,8,10,12,14,-1,-1,-1,-1,-1,-1,-1,-1],"split_conditions":[1E0,1E0,1E0,1E0,1E0,1E0,1E0,3.9441194E-2,-1.4208886E-3,5.641643E-2,1.2544148E-1,-8.4122166E-2,-3.882602E-2,-1.7799188E-3,-8.2621515E-2],"split_indices":[3,1,6,2,4,1,2,0,0,0,0,0,0,0,0],"split_type":[0,0,0,0,0,0,0,0,0,0,0,0,0,0,0],"sum_hessian":[4.835576E2,2.3118394E2,2.5237364E2,1.3385986E2,9.732408E1,7.651962E1,1.7585402E2,9.3123245E1,4.073662E1,8.9416885E1,7.907194E0,6.675443E1,9.76519E0,1.2500782E2,5.08462E1],"tree_param":{"num_deleted":"0","num_feature":"7","num_nodes":"15","size_leaf_vector":"1"}},{"base_weights":[-1.5209247E-2,3.735348E-1,-3.9429313E-1,3.0684185E-1,8.4898806E-1,-4.2333713E-1,1.5907842E-1,1.6725378E-2,4.8789784E-2,9.2693806E-2,5.6824215E-2,-7.947578E-2,-2.644659E-2],"categories":[],"categories_nodes":[],"categories_segments":[],"categories_sizes":[],"default_left":[0,0,0,0,0,0,0,0,0,0,0,0,0],"id":10,"left_children":[1,3,5,7,9,11,-1,-1,-1,-1,-1,-1,-1],"loss_changes":[7.103343E1,7.2862396E0,1.4742424E1,5.232998E0,1.01602554E-1,1.4028038E1,0E0,0E0,0E0,0E0,0E0,0E0,0E0],"parents":[2147483647,0,0,1,1,2,2,3,3,4,4,5,5],"right_children":[2,4,6,8,10,12,-1,-1,-1,-1,-1,-1,-1],"split_conditions":[1E0,1E0,1E0,1E0,1E0,1E0,1.5907842E-1,1.6725378E-2,4.8789784E-2,9.2693806E-2,5.6824215E-2,-7.947578E-2,-2.644659E-2],"split_indices":[3,5,5,1,2,6,0,0,0,0,0,0,0],"split_type":[0,0,0,0,0,0,0,0,0,0,0,0,0],"sum_hessian":[4.8001904E2,2.3699715E2,2.430219E2,2.0928554E2,2.7711615E1,2.4029288E2,2.729026E0,1.19262184E2,9.002335E1,1.9887962E1,7.8236537E0,7.079071E1,1.6950217E2],"tree_param":{"num_deleted":"0","num_feature":"7","num_nodes":"13","size_leaf_vector":"1"}},{"base_weights":[-1.4067877E-2,3.2983267E-1,-3.689815E-1,2.708261E-1,7.4730396E-1,-2.3097008E-1,-7.907035E-2,3.7031453E-2,3.504606E-3,8.136451E-2,5.0623477E-2,-7.457297E-2,6.580381E-4],"categories":[],"categories_nodes":[],"categories_segments":[],"categories_sizes":[],"default_left":[0,0,0,0,0,0,0,0,0,0,0,0,0],"id":11,"left_children":[1,3,5,7,9,11,-1,-1,-1,-1,-1,-1,-1],"loss_changes":[5.8366947E1,5.7808743E0,1.3513233E1,5.01581E0,6.006813E-2,2.1857357E1,0E0,0E0,0E0,0E0,0E0,0E0,0E0],"parents":[2147483647,0,0,1,1,2,2,3,3,4,4,5,5],"right_children":[2,4,6,8,10,12,-1,-1,-1,-1,-1,-1,-1],"split_conditions":[1E0,1E0,1E0,1E0,1E0,1E0,-7.907035E-2,3.7031453E-2,3.504606E-3,8.136451E-2,5.0623477E-2,-7.457297E-2,6.580381E-4],"split_indices":[3,5,2,2,2,6,0,0,0,0,0,0,0],"split_type":[0,0,0,0,0,0,0,0,0,0,0,0,0],"sum_hessian":[4.7620493E2,2.4189078E2,2.3431416E2,2.133798E2,2.8510975E1,1.7770627E2,5.66079E1,1.4965965E2,6.3720142E1,2.0495544E1,8.015432E0,5.5437283E1,1.2226898E2],"tree_param":{"num_deleted":"0","num_feature":"7","num_nodes":"13","size_leaf_vector":"1"}},{"base_weights":[-1.3538829E-2,2.9220724E-1,-3.4538075E-1,2.3972303E-1,6.6168994E-1,-2.1350104E-1,-7.6977804E-2,1.957406E-2,7.833814E-2,5.3689677E-2,7.9691336E-2,-7.2330676E-2,5.9240166E-4],"categories":[],"categories_nodes":[],"categories_segments":[],"categories_sizes":[],"default_left":[0,0,0,0,0,0,0,0,0,0,0,0,0],"id":12,"left_children":[1,3,5,7,9,11,-1,-1,-1,-1,-1,-1,-1],"loss_changes":[4.8154236E1,4.6320705E0,1.2572969E1,5.056611E0,8.107662E-2,1.9581343E1,0E0,0E0,0E0,0E0,0E0,0E0,0E0],"parents":[2147483647,0,0,1,1,2,2,3,3,4,4,5,5],"right_children":[2,4,6,8,10,12,-1,-1,-1,-1,-1,-1,-1],"split_conditions":[1E0,1E0,1E0,1E0,1E0,1E0,-7.6977804E-2,1.957406E-2,7.833814E-2,5.3689677E-2,7.9691336E-2,-7.2330676E-2,5.9240166E-4],"split_indices":[3,5,2,4,1,6,0,0,0,0,0,0,0],"split_type":[0,0,0,0,0,0,0,0,0,0,0,0,0],"sum_hessian":[4.7262122E2,2.4604474E2,2.2657648E2,2.1688544E2,2.9159302E1,1.7400745E2,5.2569042E1,2.0191072E2,1.4974713E1,1.7749407E1,1.1409894E1,5.1667744E1,1.223397E2],"tree_param":{"num_deleted":"0","num_feature":"7","num_nodes":"13","size_leaf_vector":"1"}},{"base_weights":[-1.2808644E-2,2.5973788E-1,-3.226459E-1,3.444172E-1,5.4441523E-2,-3.5263482E-1,1.3837086E-1,4.051912E-3,4.8835535E-2,-2.8304372E-3,6.170851E-2,-7.323768E-2,-2.1295868E-2],"categories":[],"categories_nodes":[],"categories_segments":[],"categories_sizes":[],"default_left":[0,0,0,0,0,0,0,0,0,0,0,0,0],"id":13,"left_children":[1,3,5,7,9,11,-1,-1,-1,-1,-1,-1,-1],"loss_changes":[3.979907E1,4.3406487E0,1.1773512E1,7.737896E0,3.482052E0,1.1382076E1,0E0,0E0,0E0,0E0,0E0,0E0,0E0],"parents":[2147483647,0,0,1,1,2,2,3,3,4,4,5,5],"right_children":[2,4,6,8,10,12,-1,-1,-1,-1,-1,-1,-1],"split_conditions":[1E0,1E0,1E0,1E0,1E0,1E0,1.3837086E-1,4.051912E-3,4.8835535E-2,-2.8304372E-3,6.170851E-2,-7.323768E-2,-2.1295868E-2],"split_indices":[3,2,5,0,4,6,0,0,0,0,0,0,0],"split_type":[0,0,0,0,0,0,0,0,0,0,0,0,0],"sum_hessian":[4.6930887E2,2.4976567E2,2.195432E2,1.7634879E2,7.3416885E1,2.1653104E2,3.0121574E0,5.7091797E1,1.19256996E2,6.483198E1,8.584904E0,5.7086033E1,1.59445E2],"tree_param":{"num_deleted":"0","num_feature":"7","num_nodes":"13","size_leaf_vector":"1"}},{"base_weights":[-1.1868184E-2,2.3099825E-1,-2.9997247E-1,1.195971E-1,3.771833E-1,-1.7000656E-1,-7.396002E-2,6.9361785E-3,4.473641E-2,3.2865267E-2,8.2421504E-2,-6.7602724E-2,2.3272617E-3],"categories":[],"categories_nodes":[],"categories_segments":[],"categories_sizes":[],"default_left":[0,0,0,0,0,0,0,0,0,0,0,0,0],"id":14,"left_children":[1,3,5,7,9,11,-1,-1,-1,-1,-1,-1,-1],"loss_changes":[3.2739532E1,4.089877E0,1.2101555E1,2.365745E0,2.1013832E0,1.6297058E1,0E0,0E0,0E0,0E0,0E0,0E0,0E0],"parents":[2147483647,0,0,1,1,2,2,3,3,4,4,5,5],"right_children":[2,4,6,8,10,12,-1,-1,-1,-1,-1,-1,-1],"split_conditions":[1E0,1E0,1E0,1E0,1E0,1E0,-7.396002E-2,6.9361785E-3,4.473641E-2,3.2865267E-2,8.2421504E-2,-6.7602724E-2,2.3272617E-3],"split_indices":[3,1,2,5,4,6,0,0,0,0,0,0,0],"split_type":[0,0,0,0,0,0,0,0,0,0,0,0,0],"sum_hessian":[4.6591205E2,2.5291106E2,2.1300098E2,1.4456363E2,1.0834742E2,1.6547018E2,4.7530792E1,1.2640218E2,1.816145E1,9.930217E1,9.045249E0,4.50439E1,1.20426285E2],"tree_param":{"num_deleted":"0","num_feature":"7","num_nodes":"13","size_leaf_vector":"1"}},{"base_weights":[-1.1256778E-2,2.0605704E-1,-2.7917945E-1,2.7966368E-1,2.5820846E-2,-1.5639001E-1,-7.1711175E-2,1.6033786E-3,4.0234495E-2,-4.475854E-3,4.948187E-2,-6.518326E-2,2.0919652E-3],"categories":[],"categories_nodes":[],"categories_segments":[],"categories_sizes":[],"default_left":[0,0,0,0,0,0,0,0,0,0,0,0,0],"id":15,"left_children":[1,3,5,7,9,11,-1,-1,-1,-1,-1,-1,-1],"loss_changes":[2.7072132E1,3.3991432E0,1.10845585E1,5.886594E0,2.5231395E0,1.4411884E1,0E0,0E0,0E0,0E0,0E0,0E0,0E0],"parents":[2147483647,0,0,1,1,2,2,3,3,4,4,5,5],"right_children":[2,4,6,8,10,12,-1,-1,-1,-1,-1,-1,-1],"split_conditions":[1E0,1E0,1E0,1E0,1E0,1E0,-7.1711175E-2,1.6033786E-3,4.0234495E-2,-4.475854E-3,4.948187E-2,-6.518326E-2,2.0919652E-3],"split_indices":[3,2,2,0,4,6,0,0,0,0,0,0,0],"split_type":[0,0,0,0,0,0,0,0,0,0,0,0,0],"sum_hessian":[4.6298273E2,2.5576279E2,2.0721992E2,1.8120772E2,7.455507E1,1.6290187E2,4.4318058E1,5.7905403E1,1.23302315E2,6.558914E1,8.96593E0,4.2228848E1,1.2067303E2],"tree_param":{"num_deleted":"0","num_feature":"7","num_nodes":"13","size_leaf_vector":"1"}},{"base_weights":[-1.0823849E-2,1.8389864E-1,-2.5936285E-1,1.4213964E-1,4.837167E-1,-1.4369553E-1,-6.940108E-2,4.2292466E-3,2.6920984E-2,5.263092E-2,2.3292627E-2,-6.271701E-2,1.8808794E-3],"categories":[],"categories_nodes":[],"categories_segments":[],"categories_sizes":[],"default_left":[0,0,0,0,0,0,0,0,0,0,0,0,0],"id":16,"left_children":[1,3,5,7,9,11,-1,-1,-1,-1,-1,-1,-1],"loss_changes":[2.2362598E1,3.1754513E0,1.0104435E1,2.8922691E0,2.113452E-1,1.2705748E1,0E0,0E0,0E0,0E0,0E0,0E0,0E0],"parents":[2147483647,0,0,1,1,2,2,3,3,4,4,5,5],"right_children":[2,4,6,8,10,12,-1,-1,-1,-1,-1,-1,-1],"split_conditions":[1E0,1E0,1E0,1E0,1E0,1E0,-6.940108E-2,4.2292466E-3,2.6920984E-2,5.263092E-2,2.3292627E-2,-6.271701E-2,1.8808794E-3],"split_indices":[3,5,2,1,4,6,0,0,0,0,0,0,0],"split_type":[0,0,0,0,0,0,0,0,0,0,0,0,0],"sum_hessian":[4.600885E2,2.581198E2,2.0196867E2,2.2785764E2,3.026219E1,1.6056908E2,4.1399605E1,1.283431E2,9.951454E1,2.4929703E1,5.332487E0,3.9673904E1,1.2089517E2],"tree_param":{"num_deleted":"0","num_feature":"7","num_nodes":"13","size_leaf_vector":"1"}},{"base_weights":[-1.0274359E-2,1.6443829E-1,-2.4053985E-1,2.2843556E-1,6.3241045E-3,-2.7125666E-1,1.2246752E-1,-2.87924E-4,3.346306E-2,-5.71821E-3,4.2387675E-2,-6.413583E-2,-1.5907157E-2],"categories":[],"categories_nodes":[],"categories_segments":[],"categories_sizes":[],"default_left":[0,0,0,0,0,0,0,0,0,0,0,0,0],"id":17,"left_children":[1,3,5,7,9,11,-1,-1,-1,-1,-1,-1,-1],"loss_changes":[1.848435E1,2.642416E0,9.252548E0,4.569187E0,2.0478032E0,7.9922447E0,0E0,0E0,0E0,0E0,0E0,0E0,0E0],"parents":[2147483647,0,0,1,1,2,2,3,3,4,4,5,5],"right_children":[2,4,6,8,10,12,-1,-1,-1,-1,-1,-1,-1],"split_conditions":[1E0,1E0,1E0,1E0,1E0,1E0,1.2246752E-1,-2.87924E-4,3.346306E-2,-5.71821E-3,4.2387675E-2,-6.413583E-2,-1.5907157E-2],"split_indices":[3,2,5,0,4,6,0,0,0,0,0,0,0],"split_type":[0,0,0,0,0,0,0,0,0,0,0,0,0],"sum_hessian":[4.5748032E2,2.6028012E2,1.9720021E2,1.8496866E2,7.5311455E1,1.9394913E2,3.2510872E0,5.8505165E1,1.2646349E2,6.6118454E1,9.192999E0,4.401744E1,1.4993167E2],"tree_param":{"num_deleted":"0","num_feature":"7","num_nodes":"13","size_leaf_vector":"1"}},{"base_weights":[-9.397523E-3,1.4713468E-1,-2.2188611E-1,6.0372643E-2,2.590127E-1,-1.1060513E-1,-6.62144E-2,1.2230958E-2,-9.182452E-3,2.2060804E-2,6.161772E-2,-5.75733E-2,2.9683516E-3],"categories":[],"categories_nodes":[],"categories_segments":[],"categories_sizes":[],"default_left":[0,0,0,0,0,0,0,0,0,0,0,0,0],"id":18,"left_children":[1,3,5,7,9,11,-1,-1,-1,-1,-1,-1,-1],"loss_changes":[1.5191996E1,2.5376186E0,9.41787E0,1.4200652E0,1.4358206E0,1.0185975E1,0E0,0E0,0E0,0E0,0E0,0E0,0E0],"parents":[2147483647,0,0,1,1,2,2,3,3,4,4,5,5],"right_children":[2,4,6,8,10,12,-1,-1,-1,-1,-1,-1,-1],"split_conditions":[1E0,1E0,1E0,1E0,1E0,1E0,-6.62144E-2,1.2230958E-2,-9.182452E-3,2.2060804E-2,6.161772E-2,-5.75733E-2,2.9683516E-3],"split_indices":[3,1,2,2,4,6,0,0,0,0,0,0,0],"split_type":[0,0,0,0,0,0,0,0,0,0,0,0,0],"sum_hessian":[4.5476526E2,2.6203885E2,1.9272641E2,1.4845262E2,1.1358621E2,1.5483983E2,3.7886585E1,1.0565321E2,4.279941E1,1.04019066E2,9.567149E0,3.516063E1,1.196792E2],"tree_param":{"num_deleted":"0","num_feature":"7","num_nodes":"13","size_leaf_vector":"1"}},{"base_weights":[-8.918656E-3,1.3179693E-1,-2.0515287E-1,9.51466E-2,3.984461E-1,-1.01282686E-1,-6.377851E-2,6.635004E-3,4.355756E-2,4.3982893E-2,1.6452871E-2,-5.5016767E-2,2.6666892E-3],"categories":[],"categories_nodes":[],"categories_segments":[],"categories_sizes":[],"default_left":[0,0,0,0,0,0,0,0,0,0,0,0,0],"id":19,"left_children":[1,3,5,7,9,11,-1,-1,-1,-1,-1,-1,-1],"loss_changes":[1.2551884E1,2.549605E0,8.465191E0,2.2658987E0,2.3430777E-1,8.874177E0,0E0,0E0,0E0,0E0,0E0,0E0,0E0],"parents":[2147483647,0,0,1,1,2,2,3,3,4,4,5,5],"right_children":[2,4,6,8,10,12,-1,-1,-1,-1,-1,-1,-1],"split_conditions":[1E0,1E0,1E0,1E0,1E0,1E0,-6.377851E-2,6.635004E-3,4.355756E-2,4.3982893E-2,1.6452871E-2,-5.5016767E-2,2.6666892E-3],"split_indices":[3,5,2,4,4,6,0,0,0,0,0,0,0],"split_type":[0,0,0,0,0,0,0,0,0,0,0,0,0],"sum_hessian":[4.5258167E2,2.637676E2,1.8881404E2,2.3308714E2,3.0680473E1,1.5325366E2,3.5560383E1,2.1600996E2,1.7077171E1,2.5320667E1,5.3598065E0,3.326174E1,1.1999192E2],"tree_param":{"num_deleted":"0","num_feature":"7","num_nodes":"13","size_leaf_vector":"1"}},{"base_weights":[-8.367144E-3,1.1834946E-1,-1.8940507E-1,8.537547E-2,3.5773218E-1,-9.2671275E-2,-6.1300766E-2,-5.791198E-3,1.4458949E-2,2.645622E-2,4.7241718E-2,-5.245129E-2,2.3963396E-3],"categories":[],"categories_nodes":[],"categories_segments":[],"categories_sizes":[],"default_left":[0,0,0,0,0,0,0,0,0,0,0,0,0],"id":20,"left_children":[1,3,5,7,9,11,-1,-1,-1,-1,-1,-1,-1],"loss_changes":[1.037865E1,2.0704937E0,7.575611E0,2.0044994E0,2.1600533E-1,7.7094183E0,0E0,0E0,0E0,0E0,0E0,0E0,0E0],"parents":[2147483647,0,0,1,1,2,2,3,3,4,4,5,5],"right_children":[2,4,6,8,10,12,-1,-1,-1,-1,-1,-1,-1],"split_conditions":[1E0,1E0,1E0,1E0,1E0,1E0,-6.1300766E-2,-5.791198E-3,1.4458949E-2,2.645622E-2,4.7241718E-2,-5.245129E-2,2.3963396E-3],"split_indices":[3,5,2,0,1,6,0,0,0,0,0,0,0],"split_type":[0,0,0,0,0,0,0,0,0,0,0,0,0],"sum_hessian":[4.5043863E2,2.6517615E2,1.8526248E2,2.342639E2,3.091225E1,1.5181322E2,3.3449265E1,6.850818E1,1.6575572E2,1.8880564E1,1.2031687E1,3.1539751E1,1.2027346E2],"tree_param":{"num_deleted":"0","num_feature":"7","num_nodes":"13","size_leaf_vector":"1"}},{"base_weights":[-7.882068E-3,1.0628142E-1,-1.7462589E-1,3.0129893E-2,2.0405692E-1,-2.0505825E-1,1.0840021E0,1.1619069E-2,-5.9120785E-3,1.7269757E-2,4.9544502E-2,-3.7805688E-2,-3.1042835E-4,-1.3475142E-2,1.5027393E-1],"categories":[],"categories_nodes":[],"categories_segments":[],"categories_sizes":[],"default_left":[0,0,0,0,0,0,0,0,0,0,0,0,0,0,0],"id":21,"left_children":[1,3,5,7,9,11,13,-1,-1,-1,-1,-1,-1,-1,-1],"loss_changes":[8.574308E0,1.984925E0,7.2332344E0,1.1705523E0,9.827199E-1,6.2722073E0,2.488958E0,0E0,0E0,0E0,0E0,0E0,0E0,0E0,0E0],"parents":[2147483647,0,0,1,1,2,2,3,3,4,4,5,5,6,6],"right_children":[2,4,6,8,10,12,14,-1,-1,-1,-1,-1,-1,-1,-1],"split_conditions":[1E0,1E0,1E0,1E0,1E0,1E0,1E0,1.1619069E-2,-5.9120785E-3,1.7269757E-2,4.9544502E-2,-3.7805688E-2,-3.1042835E-4,-1.3475142E-2,1.5027393E-1],"split_indices":[3,1,5,6,4,1,0,0,0,0,0,0,0,0,0],"split_type":[0,0,0,0,0,0,0,0,0,0,0,0,0,0,0],"sum_hessian":[4.4844962E2,2.6641052E2,1.820391E2,1.5050179E2,1.15908745E2,1.785588E2,3.4802945E0,7.646645E1,7.403533E1,1.0608453E2,9.82421E0,9.570425E1,8.285456E1,1.0634041E0,2.4168906E0],"tree_param":{"num_deleted":"0","num_feature":"7","num_nodes":"15","size_leaf_vector":"1"}},{"base_weights":[-6.9538276E-3,9.542754E-2,-1.5974486E-1,1.4839406E-1,-3.612781E-2,-6.89739E-2,-5.7902437E-2,-3.763464E-3,2.325961E-2,-8.387117E-3,2.743606E-2,-4.8277654E-2,3.5242003E-3],"categories":[],"categories_nodes":[],"categories_segments":[],"categories_sizes":[],"default_left":[0,0,0,0,0,0,0,0,0,0,0,0,0],"id":22,"left_children":[1,3,5,7,9,11,-1,-1,-1,-1,-1,-1,-1],"loss_changes":[7.017529E0,1.8773718E0,6.809614E0,3.0120983E0,1.178101E0,6.4460964E0,0E0,0E0,0E0,0E0,0E0,0E0,0E0],"parents":[2147483647,0,0,1,1,2,2,3,3,4,4,5,5],"right_children":[2,4,6,8,10,12,-1,-1,-1,-1,-1,-1,-1],"split_conditions":[1E0,1E0,1E0,1E0,1E0,1E0,-5.7902437E-2,-3.763464E-3,2.325961E-2,-8.387117E-3,2.743606E-2,-4.8277654E-2,3.5242003E-3],"split_indices":[3,2,2,0,4,6,0,0,0,0,0,0,0],"split_type":[0,0,0,0,0,0,0,0,0,0,0,0,0],"sum_hessian":[4.4663184E2,2.676571E2,1.7897475E2,1.9073557E2,7.692154E1,1.4808084E2,3.0893915E1,5.9604202E1,1.3113136E2,6.7302414E1,9.6191225E0,2.9060385E1,1.1902045E2],"tree_param":{"num_deleted":"0","num_feature":"7","num_nodes":"13","size_leaf_vector":"1"}},{"base_weights":[-6.6519137E-3,-4.163441E-2,3.9520288E-1,-7.047615E-2,5.491988E-1,3.0051363E-1,9.562163E-1,3.3281415E-3,-2.0231968E-2,1.6814396E-2,7.74801E-2,3.392521E-2,9.075853E-3,-1.2878482E-2,1.3040565E-1],"categories":[],"categories_nodes":[],"categories_segments":[],"categories_sizes":[],"default_left":[0,0,0,0,0,0,0,0,0,0,0,0,0,0,0],"id":23,"left_children":[1,3,5,7,9,11,13,-1,-1,-1,-1,-1,-1,-1,-1],"loss_changes":[6.283397E0,7.042424E0,1.6141553E0,5.379561E0,1.5239863E0,2.2991395E-1,1.9458456E0,0E0,0E0,0E0,0E0,0E0,0E0,0E0,0E0],"parents":[2147483647,0,0,1,1,2,2,3,3,4,4,5,5,6,6],"right_children":[2,4,6,8,10,12,14,-1,-1,-1,-1,-1,-1,-1,-1],"split_conditions":[1E0,1E0,1E0,1E0,1E0,1E0,1E0,3.3281415E-3,-2.0231968E-2,1.6814396E-2,7.74801E-2,3.392521E-2,9.075853E-3,-1.2878482E-2,1.3040565E-1],"split_indices":[5,4,3,3,6,4,0,0,0,0,0,0,0,0,0],"split_type":[0,0,0,0,0,0,0,0,0,0,0,0,0,0,0],"sum_hessian":[4.4479565E2,4.1000046E2,3.4795204E1,3.917574E2,1.8243063E1,3.1084368E1,3.7108357E0,2.1964767E2,1.721097E2,7.433228E0,1.0809835E1,2.5717396E1,5.366972E0,1.053734E0,2.6571019E0],"tree_param":{"num_deleted":"0","num_feature":"7","num_nodes":"15","size_leaf_vector":"1"}},{"base_weights":[-5.6189303E-3,-1.0829491E-1,1.17857315E-1,8.596626E-3,-3.0347165E-1,8.465788E-2,6.5854913E-1,8.521554E-3,-7.133899E-3,-5.615337E-2,-1.813013E-2,1.5597141E-2,-1.7772064E-2,1.2249374E-1,4.3696232E-2],"categories":[],"categories_nodes":[],"categories_segments":[],"categories_sizes":[],"default_left":[0,0,0,0,0,0,0,0,0,0,0,0,0,0,0],"id":24,"left_children":[1,3,5,7,9,11,13,-1,-1,-1,-1,-1,-1,-1,-1],"loss_changes":[5.6393037E0,5.5426865E0,3.5697534E0,9.42199E-1,2.7667255E0,3.6096702E0,9.126172E-1,0E0,0E0,0E0,0E0,0E0,0E0,0E0,0E0],"parents":[2147483647,0,0,1,1,2,2,3,3,4,4,5,5,6,6],"right_children":[2,4,6,8,10,12,14,-1,-1,-1,-1,-1,-1,-1,-1],"split_conditions":[1E0,1E0,1E0,1E0,1E0,1E0,1E0,8.521554E-3,-7.133899E-3,-5.615337E-2,-1.813013E-2,1.5597141E-2,-1.7772064E-2,1.2249374E-1,4.3696232E-2],"split_indices":[1,3,4,6,6,2,0,0,0,0,0,0,0,0,0],"split_type":[0,0,0,0,0,0,0,0,0,0,0,0,0,0,0],"sum_hessian":[4.428019E2,2.4183136E2,2.0097057E2,1.5184637E2,8.9984985E1,1.9043414E2,1.0536419E1,7.749794E1,7.4348434E1,2.775706E1,6.2227924E1,1.5005522E2,4.0378918E1,1.6896238E0,8.846795E0],"tree_param":{"num_deleted":"0","num_feature":"7","num_nodes":"15","size_leaf_vector":"1"}},{"base_weights":[-5.0364574E-3,-3.6510084E-2,3.497916E-1,-6.168828E-2,4.6110556E-1,2.6424038E-1,8.3678067E-1,-4.1070394E-4,-2.5557077E-2,1.3194591E-2,6.535455E-2,3.0045038E-2,6.9628293E-3,-1.3327551E-2,1.1359383E-1],"categories":[],"categories_nodes":[],"categories_segments":[],"categories_sizes":[],"default_left":[0,0,0,0,0,0,0,0,0,0,0,0,0,0,0],"id":25,"left_children":[1,3,5,7,9,11,13,-1,-1,-1,-1,-1,-1,-1,-1],"loss_changes":[4.9537787E0,5.1314664E0,1.2846417E0,4.336844E0,1.1637659E0,2.0600986E-1,1.5846622E0,0E0,0E0,0E0,0E0,0E0,0E0,0E0,0E0],"parents":[2147483647,0,0,1,1,2,2,3,3,4,4,5,5,6,6],"right_children":[2,4,6,8,10,12,14,-1,-1,-1,-1,-1,-1,-1,-1],"split_conditions":[1E0,1E0,1E0,1E0,1E0,1E0,1E0,-4.1070394E-4,-2.5557077E-2,1.3194591E-2,6.535455E-2,3.0045038E-2,6.9628293E-3,-1.3327551E-2,1.1359383E-1],"split_indices":[5,4,3,2,6,4,0,0,0,0,0,0,0,0,0],"split_type":[0,0,0,0,0,0,0,0,0,0,0,0,0,0,0],"sum_hessian":[4.414364E2,4.0629474E2,3.514167E1,3.8756107E2,1.873366E1,3.1202765E1,3.9389071E0,2.9960303E2,8.7958046E1,7.533538E0,1.1200122E1,2.5849329E1,5.353435E0,1.0591092E0,2.879798E0],"tree_param":{"num_deleted":"0","num_feature":"7","num_nodes":"15","size_leaf_vector":"1"}},{"base_weights":[-4.2183E-3,-9.785307E-2,1.0661283E-1,7.999445E-3,-2.7977422E-1,7.849298E-2,5.568698E-1,7.6496177E-3,-6.414992E-3,-5.3518213E-2,-1.6309928E-2,1.36329485E-2,-1.435751E-2,1.0849362E-1,3.5413172E-2],"categories":[],"categories_nodes":[],"categories_segments":[],"categories_sizes":[],"default_left":[0,0,0,0,0,0,0,0,0,0,0,0,0,0,0],"id":26,"left_children":[1,3,5,7,9,11,13,-1,-1,-1,-1,-1,-1,-1,-1],"loss_changes":[4.5880303E0,4.6165833E0,2.519925E0,7.5832963E-1,2.540103E0,2.4822416E0,8.7245774E-1,0E0,0E0,0E0,0E0,0E0,0E0,0E0,0E0],"parents":[2147483647,0,0,1,1,2,2,3,3,4,4,5,5,6,6],"right_children":[2,4,6,8,10,12,14,-1,-1,-1,-1,-1,-1,-1,-1],"split_conditions":[1E0,1E0,1E0,1E0,1E0,1E0,1E0,7.6496177E-3,-6.414992E-3,-5.3518213E-2,-1.6309928E-2,1.36329485E-2,-1.435751E-2,1.0849362E-1,3.5413172E-2],"split_indices":[1,3,4,6,6,2,0,0,0,0,0,0,0,0,0],"split_type":[0,0,0,0,0,0,0,0,0,0,0,0,0,0,0],"sum_hessian":[4.401017E2,2.3862144E2,2.0148027E2,1.5145308E2,8.716836E1,1.907422E2,1.0738074E1,7.7662285E1,7.3790794E1,2.6208834E1,6.0959526E1,1.5163557E2,3.910663E1,1.771772E0,8.966302E0],"tree_param":{"num_deleted":"0","num_feature":"7","num_nodes":"15","size_leaf_vector":"1"}},{"base_weights":[-3.7748073E-3,-3.2043364E-2,3.1021017E-1,-5.396487E-2,3.8971797E-1,2.3265071E-1,7.374349E-1,3.0770893E-3,-1.6608143E-2,1.0258465E-2,5.5643804E-2,2.6633685E-2,5.2723573E-3,-1.3675156E-2,9.9903546E-2],"categories":[],"categories_nodes":[],"categories_segments":[],"categories_sizes":[],"default_left":[0,0,0,0,0,0,0,0,0,0,0,0,0,0,0],"id":27,"left_children":[1,3,5,7,9,11,13,-1,-1,-1,-1,-1,-1,-1,-1],"loss_changes":[3.9143353E0,3.7605314E0,1.0354311E0,3.6660972E0,9.053743E-1,1.8167102E-1,1.3111501E0,0E0,0E0,0E0,0E0,0E0,0E0,0E0,0E0],"parents":[2147483647,0,0,1,1,2,2,3,3,4,4,5,5,6,6],"right_children":[2,4,6,8,10,12,14,-1,-1,-1,-1,-1,-1,-1,-1],"split_conditions":[1E0,1E0,1E0,1E0,1E0,1E0,1E0,3.0770893E-3,-1.6608143E-2,1.0258465E-2,5.5643804E-2,2.6633685E-2,5.2723573E-3,-1.3675156E-2,9.9903546E-2],"split_indices":[5,4,3,3,6,4,0,0,0,0,0,0,0,0,0],"split_type":[0,0,0,0,0,0,0,0,0,0,0,0,0,0,0],"sum_hessian":[4.3888712E2,4.0346088E2,3.5426266E1,3.8435562E2,1.9105251E1,3.1290306E1,4.1359587E0,2.1932164E2,1.6503397E2,7.6115627E0,1.149369E1,2.5951408E1,5.338898E0,1.0625386E0,3.0734198E0],"tree_param":{"num_deleted":"0","num_feature":"7","num_nodes":"15","size_leaf_vector":"1"}},{"base_weights":[-3.104963E-3,-8.9099206E-2,9.7396635E-2,-2.1872434E-4,-2.4845964E-1,7.356966E-2,4.7387373E-1,4.189342E-3,-1.0599218E-2,-5.0261505E-2,-1.3672336E-2,1.25787435E-2,-1.30302925E-2,9.692632E-2,2.8696794E-2],"categories":[],"categories_nodes":[],"categories_segments":[],"categories_sizes":[],"default_left":[0,0,0,0,0,0,0,0,0,0,0,0,0,0,0],"id":28,"left_children":[1,3,5,7,9,11,13,-1,-1,-1,-1,-1,-1,-1,-1],"loss_changes":[3.7964664E0,3.352635E0,1.7822273E0,6.8575674E-1,2.3380175E0,2.057118E0,8.212297E-1,0E0,0E0,0E0,0E0,0E0,0E0,0E0,0E0],"parents":[2147483647,0,0,1,1,2,2,3,3,4,4,5,5,6,6],"right_children":[2,4,6,8,10,12,14,-1,-1,-1,-1,-1,-1,-1,-1],"split_conditions":[1E0,1E0,1E0,1E0,1E0,1E0,1E0,4.189342E-3,-1.0599218E-2,-5.0261505E-2,-1.3672336E-2,1.25787435E-2,-1.30302925E-2,9.692632E-2,2.8696794E-2],"split_indices":[1,3,4,2,6,2,0,0,0,0,0,0,0,0,0],"split_type":[0,0,0,0,0,0,0,0,0,0,0,0,0,0,0],"sum_hessian":[4.3727164E2,2.3570447E2,2.0156718E2,1.5195538E2,8.374908E1,1.9069373E2,1.0873456E1,1.0911628E2,4.2839104E1,2.4507065E1,5.924201E1,1.5211548E2,3.857824E1,1.8319849E0,9.0414715E0],"tree_param":{"num_deleted":"0","num_feature":"7","num_nodes":"15","size_leaf_vector":"1"}},{"base_weights":[-2.788023E-3,-8.132877E-2,8.783652E-2,-2.5332638E-4,-2.2993764E-1,6.587509E-2,4.3500578E-1,6.117083E-3,-6.5339166E-3,-4.774378E-2,-1.2487254E-2,1.12356795E-2,-1.1881368E-2,8.956458E-2,2.6060367E-2],"categories":[],"categories_nodes":[],"categories_segments":[],"categories_sizes":[],"default_left":[0,0,0,0,0,0,0,0,0,0,0,0,0,0,0],"id":29,"left_children":[1,3,5,7,9,11,13,-1,-1,-1,-1,-1,-1,-1,-1],"loss_changes":[3.1186447E0,2.8278122E0,1.5224526E0,6.1510515E-1,2.0947084E0,1.6660364E0,7.2463036E-1,0E0,0E0,0E0,0E0,0E0,0E0,0E0,0E0],"parents":[2147483647,0,0,1,1,2,2,3,3,4,4,5,5,6,6],"right_children":[2,4,6,8,10,12,14,-1,-1,-1,-1,-1,-1,-1,-1],"split_conditions":[1E0,1E0,1E0,1E0,1E0,1E0,1E0,6.117083E-3,-6.5339166E-3,-4.774378E-2,-1.2487254E-2,1.12356795E-2,-1.1881368E-2,8.956458E-2,2.6060367E-2],"split_indices":[1,3,4,6,6,2,0,0,0,0,0,0,0,0,0],"split_type":[0,0,0,0,0,0,0,0,0,0,0,0,0,0,0],"sum_hessian":[4.361486E2,2.337067E2,2.0244188E2,1.5185953E2,8.1847176E1,1.9151657E2,1.0925314E1,7.81584E1,7.370112E1,2.3334427E1,5.851275E1,1.5332101E2,3.8195553E1,1.8646867E0,9.060627E0],"tree_param":{"num_deleted":"0","num_feature":"7","num_nodes":"15","size_leaf_vector":"1"}},{"base_weights":[-2.4840236E-3,-2.7596941E-2,2.7222914E-1,-4.59031E-2,3.154699E-1,2.0192988E-1,6.486941E-1,-3.6681657E-5,-2.0606352E-2,7.1038106E-3,4.5708764E-2,2.3436947E-2,3.1093783E-3,-1.4840263E-2,8.861107E-2],"categories":[],"categories_nodes":[],"categories_segments":[],"categories_sizes":[],"default_left":[0,0,0,0,0,0,0,0,0,0,0,0,0,0,0],"id":30,"left_children":[1,3,5,7,9,11,13,-1,-1,-1,-1,-1,-1,-1,-1],"loss_changes":[3.0166228E0,2.5300314E0,8.3830714E-1,2.7795653E0,6.74309E-1,1.7179346E-1,1.1365936E0,0E0,0E0,0E0,0E0,0E0,0E0,0E0,0E0],"parents":[2147483647,0,0,1,1,2,2,3,3,4,4,5,5,6,6],"right_children":[2,4,6,8,10,12,14,-1,-1,-1,-1,-1,-1,-1,-1],"split_conditions":[1E0,1E0,1E0,1E0,1E0,1E0,1E0,-3.6681657E-5,-2.0606352E-2,7.1038106E-3,4.5708764E-2,2.3436947E-2,3.1093783E-3,-1.4840263E-2,8.861107E-2],"split_indices":[5,4,3,2,6,4,0,0,0,0,0,0,0,0,0],"split_type":[0,0,0,0,0,0,0,0,0,0,0,0,0,0,0],"sum_hessian":[4.351756E2,3.9955023E2,3.5625362E1,3.8013245E2,1.9417795E1,3.131427E1,4.311093E0,2.967607E2,8.337174E1,7.6740417E0,1.1743754E1,2.6004461E1,5.3098083E0,1.0754226E0,3.2356703E0],"tree_param":{"num_deleted":"0","num_feature":"7","num_nodes":"15","size_leaf_vector":"1"}},{"base_weights":[-1.9953547E-3,-7.330718E-2,7.934064E-2,5.257788E-5,-2.1064152E-1,6.074377E-2,3.7155655E-1,5.5060987E-3,-5.8688973E-3,-4.51674E-2,-1.1161777E-2,-4.6270206E-3,1.1897371E-2,8.0752626E-2,2.0960568E-2],"categories":[],"categories_nodes":[],"categories_segments":[],"categories_sizes":[],"default_left":[0,0,0,0,0,0,0,0,0,0,0,0,0,0,0],"id":31,"left_children":[1,3,5,7,9,11,13,-1,-1,-1,-1,-1,-1,-1,-1],"loss_changes":[2.5296335E0,2.3410854E0,1.0846988E0,4.958794E-1,1.8806643E0,1.2066704E0,6.7771447E-1,0E0,0E0,0E0,0E0,0E0,0E0,0E0,0E0],"parents":[2147483647,0,0,1,1,2,2,3,3,4,4,5,5,6,6],"right_children":[2,4,6,8,10,12,14,-1,-1,-1,-1,-1,-1,-1,-1],"split_conditions":[1E0,1E0,1E0,1E0,1E0,1E0,1E0,5.5060987E-3,-5.8688973E-3,-4.51674E-2,-1.1161777E-2,-4.6270206E-3,1.1897371E-2,8.0752626E-2,2.0960568E-2],"split_indices":[1,3,4,6,6,0,0,0,0,0,0,0,0,0,0],"split_type":[0,0,0,0,0,0,0,0,0,0,0,0,0,0,0],"sum_hessian":[4.3412448E2,2.31369E2,2.0275548E2,1.514622E2,7.9906815E1,1.9175961E2,1.0995871E1,7.824886E1,7.321334E1,2.223168E1,5.7675133E1,6.7646126E1,1.2411349E2,1.8986062E0,9.097264E0],"tree_param":{"num_deleted":"0","num_feature":"7","num_nodes":"15","size_leaf_vector":"1"}},{"base_weights":[-1.7553337E-3,3.8893517E-2,-1.377623E-1,-8.3270065E-2,1.0717829E-1,-1.8553246E-2,-4.7689253E-1,-3.047559E-2,3.2877126E-3,8.146028E-3,3.513417E-2,-8.352481E-3,6.615127E-3,-1.7600322E-2,-5.2043915E-2],"categories":[],"categories_nodes":[],"categories_segments":[],"categories_sizes":[],"default_left":[0,0,0,0,0,0,0,0,0,0,0,0,0,0,0],"id":32,"left_children":[1,3,5,7,9,11,13,-1,-1,-1,-1,-1,-1,-1,-1],"loss_changes":[2.4061508E0,2.8044019E0,4.0396805E0,3.1154442E0,1.3239353E0,4.190359E-1,2.4914598E-1,0E0,0E0,0E0,0E0,0E0,0E0,0E0,0E0],"parents":[2147483647,0,0,1,1,2,2,3,3,4,4,5,5,6,6],"right_children":[2,4,6,8,10,12,14,-1,-1,-1,-1,-1,-1,-1,-1],"split_conditions":[1E0,1E0,1E0,1E0,1E0,1E0,1E0,-3.047559E-2,3.2877126E-3,8.146028E-3,3.513417E-2,-8.352481E-3,6.615127E-3,-1.7600322E-2,-5.2043915E-2],"split_indices":[2,0,3,6,5,1,6,0,0,0,0,0,0,0,0],"split_type":[0,0,0,0,0,0,0,0,0,0,0,0,0,0,0],"sum_hessian":[4.332554E2,3.341122E2,9.914319E1,1.1971641E2,2.1439581E2,7.413751E1,2.5005672E1,4.062433E1,7.909208E1,1.9517177E2,1.922404E1,4.1963703E1,3.2173813E1,3.7988548E0,2.1206818E1],"tree_param":{"num_deleted":"0","num_feature":"7","num_nodes":"15","size_leaf_vector":"1"}},{"base_weights":[-1.8182707E-3,-2.3127494E-2,2.2853914E-1,-8.8794716E-2,4.9665302E-2,1.6556364E-1,5.574541E-1,-1.7113716E-3,-2.104696E-2,3.1891528E-3,3.5868328E-2,1.9541068E-2,1.1122011E-3,-1.4600927E-2,7.60556E-2],"categories":[],"categories_nodes":[],"categories_segments":[],"categories_sizes":[],"default_left":[0,0,0,0,0,0,0,0,0,0,0,0,0,0,0],"id":33,"left_children":[1,3,5,7,9,11,13,-1,-1,-1,-1,-1,-1,-1,-1],"loss_changes":[2.1327622E0,1.9050573E0,6.6974723E-1,1.8227237E0,1.0278268E0,1.4671731E-1,8.9535415E-1,0E0,0E0,0E0,0E0,0E0,0E0,0E0,0E0],"parents":[2147483647,0,0,1,1,2,2,3,3,4,4,5,5,6,6],"right_children":[2,4,6,8,10,12,14,-1,-1,-1,-1,-1,-1,-1,-1],"split_conditions":[1E0,1E0,1E0,1E0,1E0,1E0,1E0,-1.7113716E-3,-2.104696E-2,3.1891528E-3,3.5868328E-2,1.9541068E-2,1.1122011E-3,-1.4600927E-2,7.60556E-2],"split_indices":[5,1,3,3,4,4,0,0,0,0,0,0,0,0,0],"split_type":[0,0,0,0,0,0,0,0,0,0,0,0,0,0,0],"sum_hessian":[4.3240607E2,3.9661664E2,3.578944E1,2.083983E2,1.8821834E2,3.1299973E1,4.489466E0,1.3185855E2,7.653974E1,1.790246E2,9.193746E0,2.6008383E1,5.2915907E0,1.0687721E0,3.4206944E0],"tree_param":{"num_deleted":"0","num_feature":"7","num_nodes":"15","size_leaf_vector":"1"}},{"base_weights":[-1.4641716E-3,3.5730362E-2,-1.2747657E-1,-7.3260084E-2,9.5988184E-2,-2.063099E-2,-4.4730872E-1,-2.7974918E-2,3.251969E-3,7.533913E-3,2.9087579E-2,8.2411235E-3,-7.4062184E-3,-1.5551639E-2,-4.911041E-2],"categories":[],"categories_nodes":[],"categories_segments":[],"categories_sizes":[],"default_left":[0,0,0,0,0,0,0,0,0,0,0,0,0,0,0],"id":34,"left_children":[1,3,5,7,9,11,13,-1,-1,-1,-1,-1,-1,-1,-1],"loss_changes":[2.031019E0,2.2045784E0,3.365428E0,2.623592E0,8.469585E-1,4.1942748E-1,2.3902416E-1,0E0,0E0,0E0,0E0,0E0,0E0,0E0,0E0],"parents":[2147483647,0,0,1,1,2,2,3,3,4,4,5,5,6,6],"right_children":[2,4,6,8,10,12,14,-1,-1,-1,-1,-1,-1,-1,-1],"split_conditions":[1E0,1E0,1E0,1E0,1E0,1E0,1E0,-2.7974918E-2,3.251969E-3,7.533913E-3,2.9087579E-2,8.2411235E-3,-7.4062184E-3,-1.5551639E-2,-4.911041E-2],"split_indices":[2,0,3,6,5,6,6,0,0,0,0,0,0,0,0],"split_type":[0,0,0,0,0,0,0,0,0,0,0,0,0,0,0],"sum_hessian":[4.3136102E2,3.3360788E2,9.775313E1,1.18698296E2,2.1490958E2,7.407243E1,2.36807E1,3.965144E1,7.904686E1,1.9557434E2,1.9335234E1,2.5108406E1,4.8964024E1,3.6843307E0,1.9996368E1],"tree_param":{"num_deleted":"0","num_feature":"7","num_nodes":"15","size_leaf_vector":"1"}},{"base_weights":[-1.5309232E-3,3.2114837E-2,-1.1690861E-1,-6.653266E-2,8.617791E-2,-1.8599909E-2,-4.2304298E-1,-2.5741562E-2,2.9232258E-3,6.75146E-3,2.6312698E-2,7.4071586E-3,-6.713728E-3,-1.4509754E-2,-4.6607587E-2],"categories":[],"categories_nodes":[],"categories_segments":[],"categories_sizes":[],"default_left":[0,0,0,0,0,0,0,0,0,0,0,0,0,0,0],"id":35,"left_children":[1,3,5,7,9,11,13,-1,-1,-1,-1,-1,-1,-1,-1],"loss_changes":[1.6793989E0,1.7922293E0,2.9315996E0,2.1856463E0,6.982838E-1,3.4221622E-1,2.1578455E-1,0E0,0E0,0E0,0E0,0E0,0E0,0E0,0E0],"parents":[2147483647,0,0,1,1,2,2,3,3,4,4,5,5,6,6],"right_children":[2,4,6,8,10,12,14,-1,-1,-1,-1,-1,-1,-1,-1],"split_conditions":[1E0,1E0,1E0,1E0,1E0,1E0,1E0,-2.5741562E-2,2.9232258E-3,6.75146E-3,2.6312698E-2,7.4071586E-3,-6.713728E-3,-1.4509754E-2,-4.6607587E-2],"split_indices":[2,0,3,6,5,6,6,0,0,0,0,0,0,0,0],"split_type":[0,0,0,0,0,0,0,0,0,0,0,0,0,0,0],"sum_hessian":[4.306479E2,3.339771E2,9.6670784E1,1.1815396E2,2.1582315E2,7.397576E1,2.2695024E1,3.89096E1,7.924436E1,1.9648128E2,1.934188E1,2.5246677E1,4.8729084E1,3.62879E0,1.9066235E1],"tree_param":{"num_deleted":"0","num_feature":"7","num_nodes":"15","size_leaf_vector":"1"}},{"base_weights":[-1.5731772E-3,-5.723793E-2,6.0283396E-2,-2.6699535E-3,-1.6464266E-1,1.7786087E-1,2.7231542E-2,5.249999E-3,-6.1458903E-3,-4.0079407E-2,-7.2250636E-3,2.8595595E-2,-2.0345513E-2,5.756918E-4,3.858457E-2],"categories":[],"categories_nodes":[],"categories_segments":[],"categories_sizes":[],"default_left":[0,0,0,0,0,0,0,0,0,0,0,0,0,0,0],"id":36,"left_children":[1,3,5,7,9,11,13,-1,-1,-1,-1,-1,-1,-1,-1],"loss_changes":[1.4874189E0,1.3320688E0,7.9035765E-1,4.9550053E-1,1.6418874E0,1.90142E0,1.2369276E0,0E0,0E0,0E0,0E0,0E0,0E0,0E0,0E0],"parents":[2147483647,0,0,1,1,2,2,3,3,4,4,5,5,6,6],"right_children":[2,4,6,8,10,12,14,-1,-1,-1,-1,-1,-1,-1,-1],"split_conditions":[1E0,1E0,1E0,1E0,1E0,1E0,1E0,5.249999E-3,-6.1458903E-3,-4.0079407E-2,-7.2250636E-3,2.8595595E-2,-2.0345513E-2,5.756918E-4,3.858457E-2],"split_indices":[1,3,6,6,6,2,4,0,0,0,0,0,0,0,0],"split_type":[0,0,0,0,0,0,0,0,0,0,0,0,0,0,0],"sum_hessian":[4.299814E2,2.2635716E2,2.0362424E2,1.5077791E2,7.557926E1,4.3718906E1,1.5990533E2,7.783827E1,7.293963E1,2.0315487E1,5.526378E1,3.425766E1,9.461246E0,1.518295E2,8.075839E0],"tree_param":{"num_deleted":"0","num_feature":"7","num_nodes":"15","size_leaf_vector":"1"}},{"base_weights":[-1.4801389E-3,-1.868177E-2,1.826124E-1,-3.2631047E-2,2.3573332E-1,1.2619598E-1,4.7192788E-1,2.0709494E-3,-1.0792475E-2,3.0065838E-3,3.5692524E-2,2.689975E-2,6.23308E-3,-1.4338913E-2,6.45767E-2],"categories":[],"categories_nodes":[],"categories_segments":[],"categories_sizes":[],"default_left":[0,0,0,0,0,0,0,0,0,0,0,0,0,0,0],"id":37,"left_children":[1,3,5,7,9,11,13,-1,-1,-1,-1,-1,-1,-1,-1],"loss_changes":[1.3655778E0,1.4070351E0,5.4194355E-1,1.5070497E0,5.0315213E-1,2.769286E-1,6.967882E-1,0E0,0E0,0E0,0E0,0E0,0E0,0E0,0E0],"parents":[2147483647,0,0,1,1,2,2,3,3,4,4,5,5,6,6],"right_children":[2,4,6,8,10,12,14,-1,-1,-1,-1,-1,-1,-1,-1],"split_conditions":[1E0,1E0,1E0,1E0,1E0,1E0,1E0,2.0709494E-3,-1.0792475E-2,3.0065838E-3,3.5692524E-2,2.689975E-2,6.23308E-3,-1.4338913E-2,6.45767E-2],"split_indices":[5,4,3,3,6,0,0,0,0,0,0,0,0,0,0],"split_type":[0,0,0,0,0,0,0,0,0,0,0,0,0,0,0],"sum_hessian":[4.291543E2,3.9330255E2,3.5851727E1,3.7368558E2,1.9616995E1,3.1203283E1,4.648442E0,2.1915436E2,1.5453122E2,7.7362885E0,1.1880706E1,8.650021E0,2.2553263E1,1.0625665E0,3.5858753E0],"tree_param":{"num_deleted":"0","num_feature":"7","num_nodes":"15","size_leaf_vector":"1"}},{"base_weights":[-1.1041178E-3,2.9431174E-2,-1.0693726E-1,-5.7961926E-2,7.6887704E-2,-2.110289E-2,-3.888481E-1,-2.4198957E-2,3.295732E-3,1.4739831E-2,3.8884848E-3,-7.7458816E-3,5.197864E-3,-1.0473039E-2,-4.345484E-2],"categories":[],"categories_nodes":[],"categories_segments":[],"categories_sizes":[],"default_left":[0,0,0,0,0,0,0,0,0,0,0,0,0,0,0],"id":38,"left_children":[1,3,5,7,9,11,13,-1,-1,-1,-1,-1,-1,-1,-1],"loss_changes":[1.3899881E0,1.3889953E0,2.3222365E0,1.9832147E0,5.75156E-1,3.1245375E-1,2.456193E-1,0E0,0E0,0E0,0E0,0E0,0E0,0E0,0E0],"parents":[2147483647,0,0,1,1,2,2,3,3,4,4,5,5,6,6],"right_children":[2,4,6,8,10,12,14,-1,-1,-1,-1,-1,-1,-1,-1],"split_conditions":[1E0,1E0,1E0,1E0,1E0,1E0,1E0,-2.4198957E-2,3.295732E-3,1.4739831E-2,3.8884848E-3,-7.7458816E-3,5.197864E-3,-1.0473039E-2,-4.345484E-2],"split_indices":[2,0,3,6,6,1,6,0,0,0,0,0,0,0,0],"split_type":[0,0,0,0,0,0,0,0,0,0,0,0,0,0,0],"sum_hessian":[4.281438E2,3.328351E2,9.530866E1,1.1705404E2,2.1578108E2,7.388692E1,2.142175E1,3.8157894E1,7.889615E1,7.456127E1,1.412198E2,4.1683388E1,3.220353E1,3.4243479E0,1.7997402E1],"tree_param":{"num_deleted":"0","num_feature":"7","num_nodes":"15","size_leaf_vector":"1"}},{"base_weights":[-1.2014388E-3,-5.0814047E-2,5.349675E-2,-6.8276757E-3,-1.3983236E-1,1.545006E-1,2.4831647E-2,4.362598E-3,-6.0752262E-3,-3.6975935E-2,-5.2708844E-3,2.5101094E-2,-1.9213907E-2,7.035073E-4,3.2069016E-2],"categories":[],"categories_nodes":[],"categories_segments":[],"categories_sizes":[],"default_left":[0,0,0,0,0,0,0,0,0,0,0,0,0,0,0],"id":39,"left_children":[1,3,5,7,9,11,13,-1,-1,-1,-1,-1,-1,-1,-1],"loss_changes":[1.1659316E0,8.8116056E-1,5.87841E-1,4.1573343E-1,1.4719479E0,1.5531658E0,8.421565E-1,0E0,0E0,0E0,0E0,0E0,0E0,0E0,0E0],"parents":[2147483647,0,0,1,1,2,2,3,3,4,4,5,5,6,6],"right_children":[2,4,6,8,10,12,14,-1,-1,-1,-1,-1,-1,-1,-1],"split_conditions":[1E0,1E0,1E0,1E0,1E0,1E0,1E0,4.362598E-3,-6.0752262E-3,-3.6975935E-2,-5.2708844E-3,2.5101094E-2,-1.9213907E-2,7.035073E-4,3.2069016E-2],"split_indices":[1,3,6,6,6,2,4,0,0,0,0,0,0,0,0],"split_type":[0,0,0,0,0,0,0,0,0,0,0,0,0,0,0],"sum_hessian":[4.2764163E2,2.2428268E2,2.0335893E2,1.5083012E2,7.345257E1,4.3984844E1,1.5937408E2,7.802153E1,7.2808586E1,1.9292856E1,5.415971E1,3.4621506E1,9.363337E0,1.51297E2,8.077086E0],"tree_param":{"num_deleted":"0","num_feature":"7","num_nodes":"15","size_leaf_vector":"1"}},{"base_weights":[-1.1424902E-3,2.5777953E-2,-9.56363E-2,-5.251633E-2,6.798427E-2,-1.7761275E-2,-3.614148E-1,-2.2511689E-2,3.1220487E-3,5.318695E-3,2.0853246E-2,7.375338E-3,-6.6118077E-3,-7.4403654E-3,-4.0905513E-2],"categories":[],"categories_nodes":[],"categories_segments":[],"categories_sizes":[],"default_left":[0,0,0,0,0,0,0,0,0,0,0,0,0,0,0],"id":40,"left_children":[1,3,5,7,9,11,13,-1,-1,-1,-1,-1,-1,-1,-1],"loss_changes":[1.0910463E0,1.1067398E0,1.9618132E0,1.7051626E0,4.4092667E-1,3.3499658E-1,2.6351E-1,0E0,0E0,0E0,0E0,0E0,0E0,0E0,0E0],"parents":[2147483647,0,0,1,1,2,2,3,3,4,4,5,5,6,6],"right_children":[2,4,6,8,10,12,14,-1,-1,-1,-1,-1,-1,-1,-1],"split_conditions":[1E0,1E0,1E0,1E0,1E0,1E0,1E0,-2.2511689E-2,3.1220487E-3,5.318695E-3,2.0853246E-2,7.375338E-3,-6.6118077E-3,-7.4403654E-3,-4.0905513E-2],"split_indices":[2,0,3,6,5,6,6,0,0,0,0,0,0,0,0],"split_type":[0,0,0,0,0,0,0,0,0,0,0,0,0,0,0],"sum_hessian":[4.269324E2,3.3283725E2,9.409516E1,1.164934E2,2.1634386E2,7.359741E1,2.049775E1,3.7502945E1,7.8990456E1,1.969833E2,1.9360542E1,2.5262758E1,4.8334652E1,3.2827082E0,1.721504E1],"tree_param":{"num_deleted":"0","num_feature":"7","num_nodes":"15","size_leaf_vector":"1"}},{"base_weights":[-1.1795906E-3,-1.5895635E-2,1.5511945E-1,-2.7776971E-2,1.9821185E-1,1.0371794E-1,4.1546574E-1,1.4608589E-3,-8.889491E-3,1.5279934E-3,3.0664025E-2,2.614413E-2,3.4380176E-3,-1.40963895E-2,5.7093482E-2],"categories":[],"categories_nodes":[],"categories_segments":[],"categories_sizes":[],"default_left":[0,0,0,0,0,0,0,0,0,0,0,0,0,0,0],"id":41,"left_children":[1,3,5,7,9,11,13,-1,-1,-1,-1,-1,-1,-1,-1],"loss_changes":[9.855276E-1,1.0015066E0,4.5032507E-1,9.6450573E-1,4.060468E-1,3.4233043E-1,5.7761234E-1,0E0,0E0,0E0,0E0,0E0,0E0,0E0,0E0],"parents":[2147483647,0,0,1,1,2,2,3,3,4,4,5,5,6,6],"right_children":[2,4,6,8,10,12,14,-1,-1,-1,-1,-1,-1,-1,-1],"split_conditions":[1E0,1E0,1E0,1E0,1E0,1E0,1E0,1.4608589E-3,-8.889491E-3,1.5279934E-3,3.0664025E-2,2.614413E-2,3.4380176E-3,-1.40963895E-2,5.7093482E-2],"split_indices":[5,4,3,3,6,0,0,0,0,0,0,0,0,0,0],"split_type":[0,0,0,0,0,0,0,0,0,0,0,0,0,0,0],"sum_hessian":[4.2639893E2,3.905278E2,3.5871117E1,3.7082037E2,1.9707441E1,3.1124443E1,4.7466745E0,2.1941562E2,1.5140474E2,7.7586226E0,1.194882E1,8.658443E0,2.2466E1,1.0569854E0,3.6896892E0],"tree_param":{"num_deleted":"0","num_feature":"7","num_nodes":"15","size_leaf_vector":"1"}},{"base_weights":[-8.5852516E-4,2.416127E-2,-8.9295186E-2,-4.5958616E-2,6.1695427E-2,-2.0250166E-2,-3.3442572E-1,-2.0852033E-2,3.1790868E-3,1.1902555E-2,3.0626585E-3,6.4030993E-3,-6.508724E-3,-6.3834735E-3,-3.8100723E-2],"categories":[],"categories_nodes":[],"categories_segments":[],"categories_sizes":[],"default_left":[0,0,0,0,0,0,0,0,0,0,0,0,0,0,0],"id":42,"left_children":[1,3,5,7,9,11,13,-1,-1,-1,-1,-1,-1,-1,-1],"loss_changes":[9.459896E-1,8.799907E-1,1.5889051E0,1.4825305E0,3.837734E-1,2.8616655E-1,2.3602343E-1,0E0,0E0,0E0,0E0,0E0,0E0,0E0,0E0],"parents":[2147483647,0,0,1,1,2,2,3,3,4,4,5,5,6,6],"right_children":[2,4,6,8,10,12,14,-1,-1,-1,-1,-1,-1,-1,-1],"split_conditions":[1E0,1E0,1E0,1E0,1E0,1E0,1E0,-2.0852033E-2,3.1790868E-3,1.1902555E-2,3.0626585E-3,6.4030993E-3,-6.508724E-3,-6.3834735E-3,-3.8100723E-2],"split_indices":[2,0,3,6,6,6,6,0,0,0,0,0,0,0,0],"split_type":[0,0,0,0,0,0,0,0,0,0,0,0,0,0,0],"sum_hessian":[4.2555856E2,3.3227948E2,9.327907E1,1.15772766E2,2.1650673E2,7.3624214E1,1.9654854E1,3.691256E1,7.886021E1,7.509881E1,1.4140791E2,2.541779E1,4.820642E1,3.2347357E0,1.6420118E1],"tree_param":{"num_deleted":"0","num_feature":"7","num_nodes":"15","size_leaf_vector":"1"}},{"base_weights":[-9.336379E-4,-4.5487598E-2,4.7861215E-2,-6.1371695E-2,1.05502486E-1,1.3542834E-1,2.282941E-2,-1.4925516E-2,-1.9468869E-3,4.2593412E-2,-3.7310838E-3,2.2456508E-2,-1.8725252E-2,7.7942613E-4,2.7198115E-2],"categories":[],"categories_nodes":[],"categories_segments":[],"categories_sizes":[],"default_left":[0,0,0,0,0,0,0,0,0,0,0,0,0,0,0],"id":43,"left_children":[1,3,5,7,9,11,13,-1,-1,-1,-1,-1,-1,-1,-1],"loss_changes":[9.2868E-1,5.419768E-1,4.4383508E-1,7.4339986E-1,1.0053068E0,1.3399584E0,5.963791E-1,0E0,0E0,0E0,0E0,0E0,0E0,0E0,0E0],"parents":[2147483647,0,0,1,1,2,2,3,3,4,4,5,5,6,6],"right_children":[2,4,6,8,10,12,14,-1,-1,-1,-1,-1,-1,-1,-1],"split_conditions":[1E0,1E0,1E0,1E0,1E0,1E0,1E0,-1.4925516E-2,-1.9468869E-3,4.2593412E-2,-3.7310838E-3,2.2456508E-2,-1.8725252E-2,7.7942613E-4,2.7198115E-2],"split_indices":[1,5,6,0,0,2,4,0,0,0,0,0,0,0,0],"split_type":[0,0,0,0,0,0,0,0,0,0,0,0,0,0,0],"sum_hessian":[4.2517352E2,2.2228014E2,2.0289339E2,2.0165921E2,2.062093E1,4.4124676E1,1.587687E2,6.428059E1,1.3737862E2,5.746037E0,1.4874892E1,3.4812267E1,9.312408E0,1.5070561E2,8.063099E0],"tree_param":{"num_deleted":"0","num_feature":"7","num_nodes":"15","size_leaf_vector":"1"}},{"base_weights":[-7.4280694E-4,-4.1036252E-2,4.3150958E-2,-1.3590493E-2,-1.2827113E-1,1.21325195E-1,2.071274E-2,-8.607365E-3,4.686768E-3,1.6139306E-2,-2.9925412E-2,2.008959E-2,-1.7225564E-2,7.016054E-4,2.480142E-2],"categories":[],"categories_nodes":[],"categories_segments":[],"categories_sizes":[],"default_left":[0,0,0,0,0,0,0,0,0,0,0,0,0,0,0],"id":44,"left_children":[1,3,5,7,9,11,13,-1,-1,-1,-1,-1,-1,-1,-1],"loss_changes":[7.544256E-1,5.3071165E-1,3.5561392E-1,7.502623E-1,2.6784577E0,1.0934554E0,4.9588636E-1,0E0,0E0,0E0,0E0,0E0,0E0,0E0,0E0],"parents":[2147483647,0,0,1,1,2,2,3,3,4,4,5,5,6,6],"right_children":[2,4,6,8,10,12,14,-1,-1,-1,-1,-1,-1,-1,-1],"split_conditions":[1E0,1E0,1E0,1E0,1E0,1E0,1E0,-8.607365E-3,4.686768E-3,1.6139306E-2,-2.9925412E-2,2.008959E-2,-1.7225564E-2,7.016054E-4,2.480142E-2],"split_indices":[1,2,6,6,6,2,4,0,0,0,0,0,0,0,0],"split_type":[0,0,0,0,0,0,0,0,0,0,0,0,0,0,0],"sum_hessian":[4.2455786E2,2.2139111E2,2.0316673E2,1.6928624E2,5.210488E1,4.4326645E1,1.5884009E2,7.679418E1,9.249205E1,1.9361105E1,3.274378E1,3.512283E1,9.2038145E0,1.5078499E2,8.055105E0],"tree_param":{"num_deleted":"0","num_feature":"7","num_nodes":"15","size_leaf_vector":"1"}},{"base_weights":[-6.8932184E-4,-1.3413204E-2,1.3334662E-1,-2.3298044E-2,1.6333485E-1,8.579361E-2,3.7280023E-1,1.326674E-3,-7.660135E-3,6.2573596E-4,2.5683274E-2,2.1864768E-2,2.682369E-3,-1.43679725E-2,5.1783413E-2],"categories":[],"categories_nodes":[],"categories_segments":[],"categories_sizes":[],"default_left":[0,0,0,0,0,0,0,0,0,0,0,0,0,0,0],"id":45,"left_children":[1,3,5,7,9,11,13,-1,-1,-1,-1,-1,-1,-1,-1],"loss_changes":[7.269123E-1,6.838298E-1,3.8879943E-1,7.21151E-1,3.0298567E-1,2.4585406E-1,5.106465E-1,0E0,0E0,0E0,0E0,0E0,0E0,0E0,0E0],"parents":[2147483647,0,0,1,1,2,2,3,3,4,4,5,5,6,6],"right_children":[2,4,6,8,10,12,14,-1,-1,-1,-1,-1,-1,-1,-1],"split_conditions":[1E0,1E0,1E0,1E0,1E0,1E0,1E0,1.326674E-3,-7.660135E-3,6.2573596E-4,2.5683274E-2,2.1864768E-2,2.682369E-3,-1.43679725E-2,5.1783413E-2],"split_indices":[5,4,3,3,6,0,0,0,0,0,0,0,0,0,0],"split_type":[0,0,0,0,0,0,0,0,0,0,0,0,0,0,0],"sum_hessian":[4.2417838E2,3.8822458E2,3.5953796E1,3.6848483E2,1.9739756E1,3.1129993E1,4.823805E0,2.1900429E2,1.4948055E2,7.763656E0,1.19761E1,8.737465E0,2.2392529E1,1.0596442E0,3.7641609E0],"tree_param":{"num_deleted":"0","num_feature":"7","num_nodes":"15","size_leaf_vector":"1"}},{"base_weights":[-4.4533837E-4,2.0060336E-2,-7.412326E-2,-3.9365634E-2,5.155816E-2,-1.3429493E-2,-2.9895377E-1,-1.9433526E-2,3.3656277E-3,1.0019638E-2,2.5083038E-3,5.920712E-3,-5.287661E-3,-5.4103597E-3,-3.4316763E-2],"categories":[],"categories_nodes":[],"categories_segments":[],"categories_sizes":[],"default_left":[0,0,0,0,0,0,0,0,0,0,0,0,0,0,0],"id":46,"left_children":[1,3,5,7,9,11,13,-1,-1,-1,-1,-1,-1,-1,-1],"loss_changes":[6.4276576E-1,6.250217E-1,1.2599453E0,1.3177109E0,2.7816164E-1,2.1511668E-1,1.9407868E-1,0E0,0E0,0E0,0E0,0E0,0E0,0E0,0E0],"parents":[2147483647,0,0,1,1,2,2,3,3,4,4,5,5,6,6],"right_children":[2,4,6,8,10,12,14,-1,-1,-1,-1,-1,-1,-1,-1],"split_conditions":[1E0,1E0,1E0,1E0,1E0,1E0,1E0,-1.9433526E-2,3.3656277E-3,1.0019638E-2,2.5083038E-3,5.920712E-3,-5.287661E-3,-5.4103597E-3,-3.4316763E-2],"split_indices":[2,0,3,6,6,6,6,0,0,0,0,0,0,0,0],"split_type":[0,0,0,0,0,0,0,0,0,0,0,0,0,0,0],"sum_hessian":[4.234587E2,3.318325E2,9.162624E1,1.1486688E2,2.1696559E2,7.298376E1,1.8642485E1,3.6257862E1,7.8609024E1,7.549217E1,1.4147342E2,2.5509848E1,4.747391E1,3.1915889E0,1.5450896E1],"tree_param":{"num_deleted":"0","num_feature":"7","num_nodes":"15","size_leaf_vector":"1"}},{"base_weights":[-5.403206E-4,-3.712923E-2,3.9183233E-2,-7.3485174E-3,-9.9806584E-2,1.0593791E-1,1.9892974E-2,3.6556523E-3,-5.4682572E-3,-3.237204E-2,-1.8328216E-3,1.781351E-2,-1.6341846E-2,5.728702E-4,1.9638069E-2],"categories":[],"categories_nodes":[],"categories_segments":[],"categories_sizes":[],"default_left":[0,0,0,0,0,0,0,0,0,0,0,0,0,0,0],"id":47,"left_children":[1,3,5,7,9,11,13,-1,-1,-1,-1,-1,-1,-1,-1],"loss_changes":[6.179177E-1,4.1232973E-1,2.6038754E-1,3.160055E-1,1.2930384E0,9.133274E-1,3.9728874E-1,0E0,0E0,0E0,0E0,0E0,0E0,0E0,0E0],"parents":[2147483647,0,0,1,1,2,2,3,3,4,4,5,5,6,6],"right_children":[2,4,6,8,10,12,14,-1,-1,-1,-1,-1,-1,-1,-1],"split_conditions":[1E0,1E0,1E0,1E0,1E0,1E0,1E0,3.6556523E-3,-5.4682572E-3,-3.237204E-2,-1.8328216E-3,1.781351E-2,-1.6341846E-2,5.728702E-4,1.9638069E-2],"split_indices":[1,3,6,6,6,2,5,0,0,0,0,0,0,0,0],"split_type":[0,0,0,0,0,0,0,0,0,0,0,0,0,0,0],"sum_hessian":[4.231401E2,2.202946E2,2.0284552E2,1.5009515E2,7.019944E1,4.4468563E1,1.5837695E2,7.798619E1,7.210896E1,1.7935934E1,5.2263504E1,3.533593E1,9.132635E0,1.4756627E2,1.081068E1],"tree_param":{"num_deleted":"0","num_feature":"7","num_nodes":"15","size_leaf_vector":"1"}},{"base_weights":[-5.5170566E-4,-1.1551667E-2,1.1467076E-1,-2.0416899E-2,1.4581038E-1,7.2025254E-2,3.2738456E-1,-5.7106325E-3,1.8387036E-3,-3.187101E-4,2.3514887E-2,2.019082E-2,1.4633528E-3,-1.4542631E-2,4.6116956E-2],"categories":[],"categories_nodes":[],"categories_segments":[],"categories_sizes":[],"default_left":[0,0,0,0,0,0,0,0,0,0,0,0,0,0,0],"id":48,"left_children":[1,3,5,7,9,11,13,-1,-1,-1,-1,-1,-1,-1,-1],"loss_changes":[5.382553E-1,5.4373085E-1,3.1214893E-1,5.2472377E-1,2.775632E-1,2.3641005E-1,4.4018823E-1,0E0,0E0,0E0,0E0,0E0,0E0,0E0,0E0],"parents":[2147483647,0,0,1,1,2,2,3,3,4,4,5,5,6,6],"right_children":[2,4,6,8,10,12,14,-1,-1,-1,-1,-1,-1,-1,-1],"split_conditions":[1E0,1E0,1E0,1E0,1E0,1E0,1E0,-5.7106325E-3,1.8387036E-3,-3.187101E-4,2.3514887E-2,2.019082E-2,1.4633528E-3,-1.4542631E-2,4.6116956E-2],"split_indices":[5,4,3,1,6,0,0,0,0,0,0,0,0,0,0],"split_type":[0,0,0,0,0,0,0,0,0,0,0,0,0,0,0],"sum_hessian":[4.226331E2,3.8662302E2,3.6010056E1,3.6682748E2,1.9795534E1,3.1111357E1,4.898698E0,1.8830858E2,1.785189E2,7.781681E0,1.2013852E1,8.762627E0,2.234873E1,1.0612186E0,3.837479E0],"tree_param":{"num_deleted":"0","num_feature":"7","num_nodes":"15","size_leaf_vector":"1"}},{"base_weights":[-3.3710423E-4,1.7608501E-2,-6.539619E-2,8.80755E-3,1.9167072E-1,-1.0668056E-2,-2.7434158E-1,-4.882339E-3,4.0051816E-3,6.6066273E-3,2.535793E-2,-5.6226305E-3,4.761412E-3,-2.747101E-3,-3.2036807E-2],"categories":[],"categories_nodes":[],"categories_segments":[],"categories_sizes":[],"default_left":[0,0,0,0,0,0,0,0,0,0,0,0,0,0,0],"id":49,"left_children":[1,3,5,7,9,11,13,-1,-1,-1,-1,-1,-1,-1,-1],"loss_changes":[4.95243E-1,5.0765574E-1,1.0457606E0,5.737199E-1,1.0730559E-1,1.9840175E-1,2.0702326E-1,0E0,0E0,0E0,0E0,0E0,0E0,0E0,0E0],"parents":[2147483647,0,0,1,1,2,2,3,3,4,4,5,5,6,6],"right_children":[2,4,6,8,10,12,14,-1,-1,-1,-1,-1,-1,-1,-1],"split_conditions":[1E0,1E0,1E0,1E0,1E0,1E0,1E0,-4.882339E-3,4.0051816E-3,6.6066273E-3,2.535793E-2,-5.6226305E-3,4.761412E-3,-2.747101E-3,-3.2036807E-2],"split_indices":[2,4,3,0,6,1,6,0,0,0,0,0,0,0,0],"split_type":[0,0,0,0,0,0,0,0,0,0,0,0,0,0,0],"sum_hessian":[4.2219577E2,3.3148877E2,9.070702E1,3.165347E2,1.4954059E1,7.271275E1,1.799427E1,1.1108064E2,2.0545406E2,5.6196594E0,9.334399E0,4.0831047E1,3.1881708E1,3.078592E0,1.4915678E1],"tree_param":{"num_deleted":"0","num_feature":"7","num_nodes":"15","size_leaf_vector":"1"}},{"base_weights":[-3.3921775E-4,-1.0185228E-2,1.0236941E-1,-4.181015E-2,2.3179179E-2,6.333235E-2,2.9599726E-1,-1.136624E-2,-8.366543E-4,9.860474E-3,2.1409597E-4,1.8509127E-2,9.5182954E-4,-1.3919391E-2,4.178509E-2],"categories":[],"categories_nodes":[],"categories_segments":[],"categories_sizes":[],"default_left":[0,0,0,0,0,0,0,0,0,0,0,0,0,0,0],"id":50,"left_children":[1,3,5,7,9,11,13,-1,-1,-1,-1,-1,-1,-1,-1],"loss_changes":[4.285602E-1,4.0897444E-1,2.6146787E-1,4.7693834E-1,2.993947E-1,2.0872633E-1,3.7357247E-1,0E0,0E0,0E0,0E0,0E0,0E0,0E0,0E0],"parents":[2147483647,0,0,1,1,2,2,3,3,4,4,5,5,6,6],"right_children":[2,4,6,8,10,12,14,-1,-1,-1,-1,-1,-1,-1,-1],"split_conditions":[1E0,1E0,1E0,1E0,1E0,1E0,1E0,-1.136624E-2,-8.366543E-4,9.860474E-3,2.1409597E-4,1.8509127E-2,9.5182954E-4,-1.3919391E-2,4.178509E-2],"split_indices":[5,1,3,0,6,0,0,0,0,0,0,0,0,0,0],"split_type":[0,0,0,0,0,0,0,0,0,0,0,0,0,0,0],"sum_hessian":[4.21753E2,3.856811E2,3.6071907E1,1.9787209E2,1.8780899E2,3.11241E1,4.9478083E0,6.208543E1,1.3578665E2,4.0156006E1,1.4765298E2,8.791995E0,2.2332106E1,1.0512049E0,3.896603E0],"tree_param":{"num_deleted":"0","num_feature":"7","num_nodes":"15","size_leaf_vector":"1"}},{"base_weights":[-2.1190051E-4,1.612049E-2,-5.9767712E-2,8.114528E-3,1.7403316E-1,-9.92858E-3,-2.547618E-1,-4.102072E-3,3.4497161E-3,5.8827284E-3,2.308868E-2,8.4475735E-3,-3.8668027E-3,-2.5710305E-3,-2.986589E-2],"categories":[],"categories_nodes":[],"categories_segments":[],"categories_sizes":[],"default_left":[0,0,0,0,0,0,0,0,0,0,0,0,0,0,0],"id":51,"left_children":[1,3,5,7,9,11,13,-1,-1,-1,-1,-1,-1,-1,-1],"loss_changes":[4.118215E-1,4.1866478E-1,8.829916E-1,4.1272542E-1,9.111184E-2,2.029818E-1,1.7841268E-1,0E0,0E0,0E0,0E0,0E0,0E0,0E0,0E0],"parents":[2147483647,0,0,1,1,2,2,3,3,4,4,5,5,6,6],"right_children":[2,4,6,8,10,12,14,-1,-1,-1,-1,-1,-1,-1,-1],"split_conditions":[1E0,1E0,1E0,1E0,1E0,1E0,1E0,-4.102072E-3,3.4497161E-3,5.8827284E-3,2.308868E-2,8.4475735E-3,-3.8668027E-3,-2.5710305E-3,-2.986589E-2],"split_indices":[2,4,3,0,6,0,6,0,0,0,0,0,0,0,0],"split_type":[0,0,0,0,0,0,0,0,0,0,0,0,0,0,0],"sum_hessian":[4.2139413E2,3.3127554E2,9.01186E1,3.1629138E2,1.4984164E1,7.261072E1,1.750788E1,1.1030449E2,2.059869E2,5.623548E0,9.360616E0,1.6493368E1,5.611735E1,3.0707362E0,1.4437142E1],"tree_param":{"num_deleted":"0","num_feature":"7","num_nodes":"15","size_leaf_vector":"1"}},{"base_weights":[-2.1023006E-4,-8.999103E-3,9.113671E-2,-3.7716255E-2,2.1175064E-2,5.5355962E-2,2.6793733E-1,-1.0098297E-2,-8.5811905E-4,8.785625E-3,2.467511E-4,1.668106E-2,6.024376E-4,-1.333635E-2,3.7940543E-2],"categories":[],"categories_nodes":[],"categories_segments":[],"categories_sizes":[],"default_left":[0,0,0,0,0,0,0,0,0,0,0,0,0,0,0],"id":52,"left_children":[1,3,5,7,9,11,13,-1,-1,-1,-1,-1,-1,-1,-1],"loss_changes":[3.396291E-1,3.3517423E-1,2.2005406E-1,3.642422E-1,2.3531199E-1,1.7571259E-1,3.1850663E-1,0E0,0E0,0E0,0E0,0E0,0E0,0E0,0E0],"parents":[2147483647,0,0,1,1,2,2,3,3,4,4,5,5,6,6],"right_children":[2,4,6,8,10,12,14,-1,-1,-1,-1,-1,-1,-1,-1],"split_conditions":[1E0,1E0,1E0,1E0,1E0,1E0,1E0,-1.0098297E-2,-8.5811905E-4,8.785625E-3,2.467511E-4,1.668106E-2,6.024376E-4,-1.333635E-2,3.7940543E-2],"split_indices":[5,1,3,0,6,0,0,0,0,0,0,0,0,0,0],"split_type":[0,0,0,0,0,0,0,0,0,0,0,0,0,0,0],"sum_hessian":[4.210149E2,3.8488498E2,3.6129917E1,1.9707559E2,1.878094E2,3.1140774E1,4.9891424E0,6.1362045E1,1.3571355E2,4.033677E1,1.4747263E2,8.823795E0,2.2316978E1,1.0418628E0,3.9472795E0],"tree_param":{"num_deleted":"0","num_feature":"7","num_nodes":"15","size_leaf_vector":"1"}},{"base_weights":[-1.0511624E-4,1.4740181E-2,-5.451826E-2,7.454293E-3,1.5812545E-1,-9.12541E-3,-2.3622386E-1,-3.4341016E-3,2.971033E-3,2.8642965E-2,1.014975E-2,5.8532953E-3,-4.6242136E-3,-3.8044646E-2,-1.4527692E-2],"categories":[],"categories_nodes":[],"categories_segments":[],"categories_sizes":[],"default_left":[0,0,0,0,0,0,0,0,0,0,0,0,0,0,0],"id":53,"left_children":[1,3,5,7,9,11,13,-1,-1,-1,-1,-1,-1,-1,-1],"loss_changes":[3.41439E-1,3.4575447E-1,7.451364E-1,2.9597026E-1,8.724499E-2,1.8736432E-1,1.8173873E-1,0E0,0E0,0E0,0E0,0E0,0E0,0E0,0E0],"parents":[2147483647,0,0,1,1,2,2,3,3,4,4,5,5,6,6],"right_children":[2,4,6,8,10,12,14,-1,-1,-1,-1,-1,-1,-1,-1],"split_conditions":[1E0,1E0,1E0,1E0,1E0,1E0,1E0,-3.4341016E-3,2.971033E-3,2.8642965E-2,1.014975E-2,5.8532953E-3,-4.6242136E-3,-3.8044646E-2,-1.4527692E-2],"split_indices":[2,4,3,0,0,6,0,0,0,0,0,0,0,0,0],"split_type":[0,0,0,0,0,0,0,0,0,0,0,0,0,0,0],"sum_hessian":[4.2069363E2,3.310923E2,8.960134E1,3.1608304E2,1.5009256E1,7.253196E1,1.7069378E1,1.09641266E2,2.0644177E2,3.3533468E0,1.165591E1,2.5490149E1,4.7041813E1,5.370202E0,1.1699176E1],"tree_param":{"num_deleted":"0","num_feature":"7","num_nodes":"15","size_leaf_vector":"1"}},{"base_weights":[-1.427497E-4,1.3371878E-2,-4.991646E-2,6.7029716E-3,1.4420822E-1,-8.209112E-3,-2.2018935E-1,-3.1020606E-3,2.670716E-3,4.131093E-3,1.9604562E-2,7.837317E-3,-3.470964E-3,-3.6008246E-2,-1.3372192E-2],"categories":[],"categories_nodes":[],"categories_segments":[],"categories_sizes":[],"default_left":[0,0,0,0,0,0,0,0,0,0,0,0,0,0,0],"id":54,"left_children":[1,3,5,7,9,11,13,-1,-1,-1,-1,-1,-1,-1,-1],"loss_changes":[2.8413683E-1,2.8889698E-1,6.3875127E-1,2.4015568E-1,7.758072E-2,1.7134325E-1,1.6604841E-1,0E0,0E0,0E0,0E0,0E0,0E0,0E0,0E0],"parents":[2147483647,0,0,1,1,2,2,3,3,4,4,5,5,6,6],"right_children":[2,4,6,8,10,12,14,-1,-1,-1,-1,-1,-1,-1,-1],"split_conditions":[1E0,1E0,1E0,1E0,1E0,1E0,1E0,-3.1020606E-3,2.670716E-3,4.131093E-3,1.9604562E-2,7.837317E-3,-3.470964E-3,-3.6008246E-2,-1.3372192E-2],"split_indices":[2,4,3,0,6,0,0,0,0,0,0,0,0,0,0],"split_type":[0,0,0,0,0,0,0,0,0,0,0,0,0,0,0],"sum_hessian":[4.2040726E2,3.3120844E2,8.919883E1,3.161453E2,1.5063126E1,7.249083E1,1.6707994E1,1.0936182E2,2.0678348E2,5.6482587E0,9.414866E0,1.652924E1,5.5961594E1,5.173527E0,1.1534469E1],"tree_param":{"num_deleted":"0","num_feature":"7","num_nodes":"15","size_leaf_vector":"1"}},{"base_weights":[-1.9396274E-4,-2.4810335E-2,2.61118E-2,-6.9750804E-3,-8.356496E-2,6.963132E-2,1.3356577E-2,-7.241828E-3,4.6894797E-3,1.5599727E-2,-2.3647128E-2,1.3361307E-2,-1.6927844E-2,3.387621E-4,1.3669163E-2],"categories":[],"categories_nodes":[],"categories_segments":[],"categories_sizes":[],"default_left":[0,0,0,0,0,0,0,0,0,0,0,0,0,0,0],"id":55,"left_children":[1,3,5,7,9,11,13,-1,-1,-1,-1,-1,-1,-1,-1],"loss_changes":[2.7334183E-1,2.2791845E-1,1.1234349E-1,5.969663E-1,1.8935796E0,7.2599185E-1,1.9508569E-1,0E0,0E0,0E0,0E0,0E0,0E0,0E0,0E0],"parents":[2147483647,0,0,1,1,2,2,3,3,4,4,5,5,6,6],"right_children":[2,4,6,8,10,12,14,-1,-1,-1,-1,-1,-1,-1,-1],"split_conditions":[1E0,1E0,1E0,1E0,1E0,1E0,1E0,-7.241828E-3,4.6894797E-3,1.5599727E-2,-2.3647128E-2,1.3361307E-2,-1.6927844E-2,3.387621E-4,1.3669163E-2],"split_indices":[1,2,6,6,6,2,5,0,0,0,0,0,0,0,0],"split_type":[0,0,0,0,0,0,0,0,0,0,0,0,0,0,0],"sum_hessian":[4.2011493E2,2.1705568E2,2.0305923E2,1.6736879E2,4.96869E1,4.501468E1,1.5804456E2,7.5411575E1,9.195721E1,1.9350214E1,3.0336685E1,3.5853573E1,9.161105E0,1.4717604E2,1.0868514E1],"tree_param":{"num_deleted":"0","num_feature":"7","num_nodes":"15","size_leaf_vector":"1"}},{"base_weights":[-2.0409835E-4,-7.6700333E-3,7.712549E-2,-1.3807391E-2,9.9762015E-2,4.544591E-2,2.328769E-1,1.1164058E-3,-5.1069953E-3,-2.2311653E-3,1.7424056E-2,8.002819E-3,-1.1057704E-2,-1.3522888E-2,3.3679537E-2],"categories":[],"categories_nodes":[],"categories_segments":[],"categories_sizes":[],"default_left":[0,0,0,0,0,0,0,0,0,0,0,0,0,0,0],"id":56,"left_children":[1,3,5,7,9,11,13,-1,-1,-1,-1,-1,-1,-1,-1],"loss_changes":[2.4357907E-1,2.5504804E-1,1.7270535E-1,3.4003183E-1,1.9402187E-1,1.8210785E-1,2.7644423E-1,0E0,0E0,0E0,0E0,0E0,0E0,0E0,0E0],"parents":[2147483647,0,0,1,1,2,2,3,3,4,4,5,5,6,6],"right_children":[2,4,6,8,10,12,14,-1,-1,-1,-1,-1,-1,-1,-1],"split_conditions":[1E0,1E0,1E0,1E0,1E0,1E0,1E0,1.1164058E-3,-5.1069953E-3,-2.2311653E-3,1.7424056E-2,8.002819E-3,-1.1057704E-2,-1.3522888E-2,3.3679537E-2],"split_indices":[5,4,3,3,6,4,0,0,0,0,0,0,0,0,0],"split_type":[0,0,0,0,0,0,0,0,0,0,0,0,0,0,0],"sum_hessian":[4.1987595E2,3.837289E2,3.6147038E1,3.6381635E2,1.9912556E1,3.1110912E1,5.0361233E0,2.182541E2,1.4556226E2,7.8107753E0,1.210178E1,2.5865036E1,5.245876E0,1.0423951E0,3.9937282E0],"tree_param":{"num_deleted":"0","num_feature":"7","num_nodes":"15","size_leaf_vector":"1"}},{"base_weights":[-1.2330146E-4,-2.2503253E-2,2.3756623E-2,-6.065224E-3,-7.694753E-2,6.166136E-2,1.2604988E-2,-6.609191E-3,4.304035E-3,1.3912164E-2,-2.1883529E-2,1.191788E-2,-1.5595585E-2,4.9190864E-4,1.4031837E-2],"categories":[],"categories_nodes":[],"categories_segments":[],"categories_sizes":[],"default_left":[0,0,0,0,0,0,0,0,0,0,0,0,0,0,0],"id":57,"left_children":[1,3,5,7,9,11,13,-1,-1,-1,-1,-1,-1,-1,-1],"loss_changes":[2.2521149E-1,1.9421417E-1,8.539959E-2,4.9854973E-1,1.5743961E0,5.954591E-1,1.5517142E-1,0E0,0E0,0E0,0E0,0E0,0E0,0E0,0E0],"parents":[2147483647,0,0,1,1,2,2,3,3,4,4,5,5,6,6],"right_children":[2,4,6,8,10,12,14,-1,-1,-1,-1,-1,-1,-1,-1],"split_conditions":[1E0,1E0,1E0,1E0,1E0,1E0,1E0,-6.609191E-3,4.304035E-3,1.3912164E-2,-2.1883529E-2,1.191788E-2,-1.5595585E-2,4.9190864E-4,1.4031837E-2],"split_indices":[1,2,6,6,6,2,4,0,0,0,0,0,0,0,0],"split_type":[0,0,0,0,0,0,0,0,0,0,0,0,0,0,0],"sum_hessian":[4.194035E2,2.1653107E2,2.0287244E2,1.6716988E2,4.9361187E1,4.5087917E1,1.5778452E2,7.506476E1,9.210512E1,1.9573622E1,2.9787563E1,3.601998E1,9.067934E0,1.4980748E2,7.9770284E0],"tree_param":{"num_deleted":"0","num_feature":"7","num_nodes":"15","size_leaf_vector":"1"}},{"base_weights":[-1.3361842E-4,-6.9852932E-3,7.069141E-2,-2.9505169E-2,1.6508177E-2,4.186672E-2,2.115813E-1,-2.3915854E-4,-8.175026E-3,6.320433E-3,3.2503126E-4,1.4747532E-2,-4.6791244E-4,-1.3052649E-2,3.0795678E-2],"categories":[],"categories_nodes":[],"categories_segments":[],"categories_sizes":[],"default_left":[0,0,0,0,0,0,0,0,0,0,0,0,0,0,0],"id":58,"left_children":[1,3,5,7,9,11,13,-1,-1,-1,-1,-1,-1,-1,-1],"loss_changes":[2.0439585E-1,2.0366555E-1,1.4202502E-1,2.7806658E-1,1.1655092E-1,1.5843171E-1,2.4011478E-1,0E0,0E0,0E0,0E0,0E0,0E0,0E0,0E0],"parents":[2147483647,0,0,1,1,2,2,3,3,4,4,5,5,6,6],"right_children":[2,4,6,8,10,12,14,-1,-1,-1,-1,-1,-1,-1,-1],"split_conditions":[1E0,1E0,1E0,1E0,1E0,1E0,1E0,-2.3915854E-4,-8.175026E-3,6.320433E-3,3.2503126E-4,1.4747532E-2,-4.6791244E-4,-1.3052649E-2,3.0795678E-2],"split_indices":[5,1,3,3,6,0,0,0,0,0,0,0,0,0,0],"split_type":[0,0,0,0,0,0,0,0,0,0,0,0,0,0,0],"sum_hessian":[4.1918265E2,3.8302942E2,3.615323E1,1.9543631E2,1.8759311E2,3.1089735E1,5.063494E0,1.2935226E2,6.608405E1,4.0650112E1,1.4694301E2,8.847382E0,2.2242353E1,1.0350354E0,4.028459E0],"tree_param":{"num_deleted":"0","num_feature":"7","num_nodes":"15","size_leaf_vector":"1"}},{"base_weights":[-5.5838456E-5,-6.3037416E-3,6.43841E-2,-1.1584051E-2,8.5810564E-2,3.8095392E-2,1.9244802E-1,9.5638697E-4,-4.3382305E-3,-2.3346336E-3,1.5260394E-2,7.0061744E-3,-1.0557114E-2,-1.2444615E-2,2.8127639E-2],"categories":[],"categories_nodes":[],"categories_segments":[],"categories_sizes":[],"default_left":[0,0,0,0,0,0,0,0,0,0,0,0,0,0,0],"id":59,"left_children":[1,3,5,7,9,11,13,-1,-1,-1,-1,-1,-1,-1,-1],"loss_changes":[1.6944793E-1,1.8760382E-1,1.17905796E-1,2.4501924E-1,1.5608498E-1,1.548645E-1,2.0640029E-1,0E0,0E0,0E0,0E0,0E0,0E0,0E0,0E0],"parents":[2147483647,0,0,1,1,2,2,3,3,4,4,5,5,6,6],"right_children":[2,4,6,8,10,12,14,-1,-1,-1,-1,-1,-1,-1,-1],"split_conditions":[1E0,1E0,1E0,1E0,1E0,1E0,1E0,9.5638697E-4,-4.3382305E-3,-2.3346336E-3,1.5260394E-2,7.0061744E-3,-1.0557114E-2,-1.2444615E-2,2.8127639E-2],"split_indices":[5,4,3,3,6,4,0,0,0,0,0,0,0,0,0],"split_type":[0,0,0,0,0,0,0,0,0,0,0,0,0,0,0],"sum_hessian":[4.188608E2,3.826613E2,3.6199512E1,3.627419E2,1.9919373E1,3.1110653E1,5.088862E0,2.1827438E2,1.4446754E2,7.8086224E0,1.2110751E1,2.586739E1,5.243262E0,1.02636E0,4.062502E0],"tree_param":{"num_deleted":"0","num_feature":"7","num_nodes":"15","size_leaf_vector":"1"}},{"base_weights":[-3.351452E-6,1.0084944E-2,-3.758153E-2,4.7362875E-3,1.1456307E-1,-2.9755062E-3,-1.8451567E-1,-2.72932E-3,2.1651697E-3,2.329113E-2,6.3934186E-3,7.2700777E-3,-2.6411957E-3,-3.249317E-2,-1.01165315E-2],"categories":[],"categories_nodes":[],"categories_segments":[],"categories_sizes":[],"default_left":[0,0,0,0,0,0,0,0,0,0,0,0,0,0,0],"id":60,"left_children":[1,3,5,7,9,11,13,-1,-1,-1,-1,-1,-1,-1,-1],"loss_changes":[1.5939558E-1,1.8468933E-1,4.519335E-1,1.719984E-1,8.157638E-2,1.3146344E-1,1.654684E-1,0E0,0E0,0E0,0E0,0E0,0E0,0E0,0E0],"parents":[2147483647,0,0,1,1,2,2,3,3,4,4,5,5,6,6],"right_children":[2,4,6,8,10,12,14,-1,-1,-1,-1,-1,-1,-1,-1],"split_conditions":[1E0,1E0,1E0,1E0,1E0,1E0,1E0,-2.72932E-3,2.1651697E-3,2.329113E-2,6.3934186E-3,7.2700777E-3,-2.6411957E-3,-3.249317E-2,-1.01165315E-2],"split_indices":[2,4,3,0,0,0,0,0,0,0,0,0,0,0,0],"split_type":[0,0,0,0,0,0,0,0,0,0,0,0,0,0,0],"sum_hessian":[4.1845837E2,3.304712E2,8.7987175E1,3.153714E2,1.5099799E1,7.204042E1,1.5946755E1,1.0878066E2,2.0659073E2,3.4454587E0,1.165434E1,1.653781E1,5.5502613E1,4.860365E0,1.108639E1],"tree_param":{"num_deleted":"0","num_feature":"7","num_nodes":"15","size_leaf_vector":"1"}},{"base_weights":[-3.4711542E-5,-1.855357E-2,1.9642498E-2,-4.0586023E-3,-6.6934764E-2,6.183839E-3,3.878432E-2,-6.036516E-3,4.1811685E-3,1.27304215E-2,-1.9827751E-2,2.6054445E-3,-1.9360023E-2,2.4666866E-2,2.3783182E-3],"categories":[],"categories_nodes":[],"categories_segments":[],"categories_sizes":[],"default_left":[0,0,0,0,0,0,0,0,0,0,0,0,0,0,0],"id":61,"left_children":[1,3,5,7,9,11,13,-1,-1,-1,-1,-1,-1,-1,-1],"loss_changes":[1.531361E-1,1.5155101E-1,5.2250855E-2,4.3552643E-1,1.2968531E0,4.8469567E-1,2.5585562E-1,0E0,0E0,0E0,0E0,0E0,0E0,0E0,0E0],"parents":[2147483647,0,0,1,1,2,2,3,3,4,4,5,5,6,6],"right_children":[2,4,6,8,10,12,14,-1,-1,-1,-1,-1,-1,-1,-1],"split_conditions":[1E0,1E0,1E0,1E0,1E0,1E0,1E0,-6.036516E-3,4.1811685E-3,1.27304215E-2,-1.9827751E-2,2.6054445E-3,-1.9360023E-2,2.4666866E-2,2.3783182E-3],"split_indices":[1,2,3,6,6,4,6,0,0,0,0,0,0,0,0],"split_type":[0,0,0,0,0,0,0,0,0,0,0,0,0,0,0],"sum_hessian":[4.182423E2,2.1549248E2,2.0274983E2,1.6664857E2,4.8843895E1,1.1982421E2,8.292562E1,7.4671745E1,9.197683E1,1.9716492E1,2.9127401E1,1.0977548E2,1.0048728E1,4.5418444E0,7.838378E1],"tree_param":{"num_deleted":"0","num_feature":"7","num_nodes":"15","size_leaf_vector":"1"}},{"base_weights":[-4.8056503E-5,-5.743588E-3,5.8599036E-2,-1.070952E-2,8.048901E-2,3.5036333E-2,1.7282997E-1,8.417961E-4,-3.958007E-3,-2.127636E-3,1.4258894E-2,1.3053692E-2,-7.072886E-4,-1.2126738E-2,2.5566757E-2],"categories":[],"categories_nodes":[],"categories_segments":[],"categories_sizes":[],"default_left":[0,0,0,0,0,0,0,0,0,0,0,0,0,0,0],"id":62,"left_children":[1,3,5,7,9,11,13,-1,-1,-1,-1,-1,-1,-1,-1],"loss_changes":[1.4042498E-1,1.6494928E-1,9.410803E-2,2.0089844E-1,1.3563396E-1,1.3002896E-1,1.798392E-1,0E0,0E0,0E0,0E0,0E0,0E0,0E0,0E0],"parents":[2147483647,0,0,1,1,2,2,3,3,4,4,5,5,6,6],"right_children":[2,4,6,8,10,12,14,-1,-1,-1,-1,-1,-1,-1,-1],"split_conditions":[1E0,1E0,1E0,1E0,1E0,1E0,1E0,8.417961E-4,-3.958007E-3,-2.127636E-3,1.4258894E-2,1.3053692E-2,-7.072886E-4,-1.2126738E-2,2.5566757E-2],"split_indices":[5,4,3,3,6,0,0,0,0,0,0,0,0,0,0],"split_type":[0,0,0,0,0,0,0,0,0,0,0,0,0,0,0],"sum_hessian":[4.183933E2,3.8217987E2,3.6213455E1,3.6219757E2,1.99823E1,3.1104223E1,5.1092315E0,2.1828592E2,1.4391164E2,7.821808E0,1.2160491E1,8.875435E0,2.2228788E1,1.0208838E0,4.088348E0],"tree_param":{"num_deleted":"0","num_feature":"7","num_nodes":"15","size_leaf_vector":"1"}},{"base_weights":[3.5644112E-5,-1.6845606E-2,1.79246E-2,-3.4919577E-3,-6.1626013E-2,3.7689197E-3,3.8120776E-2,-5.489144E-3,3.815904E-3,1.1386903E-2,-1.8311147E-2,2.2378508E-3,-1.8322524E-2,5.4938016E-3,-1.2937898E-2],"categories":[],"categories_nodes":[],"categories_segments":[],"categories_sizes":[],"default_left":[0,0,0,0,0,0,0,0,0,0,0,0,0,0,0],"id":63,"left_children":[1,3,5,7,9,11,13,-1,-1,-1,-1,-1,-1,-1,-1],"loss_changes":[1.268447E-1,1.2901105E-1,5.8157578E-2,3.6073658E-1,1.0779E0,4.2517877E-1,2.4351478E-1,0E0,0E0,0E0,0E0,0E0,0E0,0E0,0E0],"parents":[2147483647,0,0,1,1,2,2,3,3,4,4,5,5,6,6],"right_children":[2,4,6,8,10,12,14,-1,-1,-1,-1,-1,-1,-1,-1],"split_conditions":[1E0,1E0,1E0,1E0,1E0,1E0,1E0,-5.489144E-3,3.815904E-3,1.1386903E-2,-1.8311147E-2,2.2378508E-3,-1.8322524E-2,5.4938016E-3,-1.2937898E-2],"split_indices":[1,2,3,6,6,4,2,0,0,0,0,0,0,0,0],"split_type":[0,0,0,0,0,0,0,0,0,0,0,0,0,0,0],"sum_hessian":[4.180325E2,2.1510394E2,2.0292856E2,1.6652397E2,4.8579956E1,1.20003586E2,8.292497E1,7.4396706E1,9.212727E1,1.9898191E1,2.8681767E1,1.09942474E2,1.0061109E1,7.596952E1,6.9554496E0],"tree_param":{"num_deleted":"0","num_feature":"7","num_nodes":"15","size_leaf_vector":"1"}},{"base_weights":[-6.190528E-5,-4.650397E-3,6.8087354E-2,1.3827498E-2,-3.4908947E-2,-1.1259376E-1,2.1746686E-1,7.8116026E-4,6.244924E-3,-1.9892758E-2,-6.3925167E-4,-3.3893276E-2,-3.8520207E-3],"categories":[],"categories_nodes":[],"categories_segments":[],"categories_sizes":[],"default_left":[0,0,0,0,0,0,0,0,0,0,0,0,0],"id":64,"left_children":[1,3,5,7,9,11,-1,-1,-1,-1,-1,-1,-1],"loss_changes":[1.3139732E-1,2.2059451E-1,1.033407E1,7.121539E-2,6.981747E-1,4.1219354E-1,0E0,0E0,0E0,0E0,0E0,0E0,0E0],"parents":[2147483647,0,0,1,1,2,2,3,3,4,4,5,5],"right_children":[2,4,6,8,10,12,-1,-1,-1,-1,-1,-1,-1],"split_conditions":[1E0,1E0,1E0,1E0,1E0,1E0,2.1746686E-1,7.8116026E-4,6.244924E-3,-1.9892758E-2,-6.3925167E-4,-3.3893276E-2,-3.8520207E-3],"split_indices":[4,3,3,5,6,0,0,0,0,0,0,0,0],"split_type":[0,0,0,0,0,0,0,0,0,0,0,0,0],"sum_hessian":[4.1818677E2,3.926794E2,2.5507355E1,2.4413641E2,1.48543E2,2.4364193E1,1.1431613E0,2.1828854E2,2.584786E1,2.1115664E1,1.27427345E2,5.1258955E0,1.9238298E1],"tree_param":{"num_deleted":"0","num_feature":"7","num_nodes":"13","size_leaf_vector":"1"}},{"base_weights":[2.8131466E-4,-4.2341994E-3,6.692193E-2,1.2468155E-2,-3.168363E-2,-1.0305355E-1,1.8838434E-1,3.1180677E-3,-2.7435625E-4,-1.834802E-2,-5.761703E-4,-3.128097E-2,-3.4873646E-3],"categories":[],"categories_nodes":[],"categories_segments":[],"categories_sizes":[],"default_left":[0,0,0,0,0,0,0,0,0,0,0,0,0],"id":65,"left_children":[1,3,5,7,9,11,-1,-1,-1,-1,-1,-1,-1],"loss_changes":[1.2635176E-1,1.8071237E-1,8.4231615E0,6.9891885E-2,5.8549774E-1,3.5111442E-1,0E0,0E0,0E0,0E0,0E0,0E0,0E0],"parents":[2147483647,0,0,1,1,2,2,3,3,4,4,5,5],"right_children":[2,4,6,8,10,12,-1,-1,-1,-1,-1,-1,-1],"split_conditions":[1E0,1E0,1E0,1E0,1E0,1E0,1.8838434E-1,3.1180677E-3,-2.7435625E-4,-1.834802E-2,-5.761703E-4,-3.128097E-2,-3.4873646E-3],"split_indices":[4,3,3,6,6,0,0,0,0,0,0,0,0],"split_type":[0,0,0,0,0,0,0,0,0,0,0,0,0],"sum_hessian":[4.1794794E2,3.923023E2,2.5645626E1,2.4423602E2,1.4806628E2,2.4314274E1,1.3313521E0,1.09045334E2,1.3519067E2,2.0710312E1,1.2735597E2,5.084317E0,1.9229956E1],"tree_param":{"num_deleted":"0","num_feature":"7","num_nodes":"13","size_leaf_vector":"1"}},{"base_weights":[5.3245475E-4,-3.8637533E-3,6.504501E-2,1.1225392E-2,-2.8748117E-2,-9.432303E-2,1.6454859E-1,5.8214867E-4,5.498506E-3,-7.576127E-4,-2.0258533E-2,-2.8865559E-2,-3.1571237E-3],"categories":[],"categories_nodes":[],"categories_segments":[],"categories_sizes":[],"default_left":[0,0,0,0,0,0,0,0,0,0,0,0,0],"id":66,"left_children":[1,3,5,7,9,11,-1,-1,-1,-1,-1,-1,-1],"loss_changes":[1.1902363E-1,1.4789271E-1,6.898726E0,5.7705246E-2,5.4551256E-1,2.9900974E-1,0E0,0E0,0E0,0E0,0E0,0E0,0E0],"parents":[2147483647,0,0,1,1,2,2,3,3,4,4,5,5],"right_children":[2,4,6,8,10,12,-1,-1,-1,-1,-1,-1,-1],"split_conditions":[1E0,1E0,1E0,1E0,1E0,1E0,1.6454859E-1,5.8214867E-4,5.498506E-3,-7.576127E-4,-2.0258533E-2,-2.8865559E-2,-3.1571237E-3],"split_indices":[4,3,3,5,2,0,0,0,0,0,0,0,0],"split_type":[0,0,0,0,0,0,0,0,0,0,0,0,0],"sum_hessian":[4.1778662E2,3.92013E2,2.5773619E1,2.4437816E2,1.4763483E2,2.4266916E1,1.5067018E0,2.1852538E2,2.5852785E1,1.3253651E2,1.5098311E1,5.0446043E0,1.9222313E1],"tree_param":{"num_deleted":"0","num_feature":"7","num_nodes":"13","size_leaf_vector":"1"}},{"base_weights":[7.203363E-4,-3.5259447E-3,6.270735E-2,1.0124481E-2,-2.6102725E-2,-8.633292E-2,1.448478E-1,2.6861145E-3,-3.4946072E-4,-1.662335E-2,-2.603617E-4,4.769364E-3,-1.6937101E-2],"categories":[],"categories_nodes":[],"categories_segments":[],"categories_sizes":[],"default_left":[0,0,0,0,0,0,0,0,0,0,0,0,0],"id":67,"left_children":[1,3,5,7,9,11,-1,-1,-1,-1,-1,-1,-1],"loss_changes":[1.1040052E-1,1.2128839E-1,5.678707E0,5.604186E-2,4.8774648E-1,2.8878328E-1,0E0,0E0,0E0,0E0,0E0,0E0,0E0],"parents":[2147483647,0,0,1,1,2,2,3,3,4,4,5,5],"right_children":[2,4,6,8,10,12,-1,-1,-1,-1,-1,-1,-1],"split_conditions":[1E0,1E0,1E0,1E0,1E0,1E0,1.448478E-1,2.6861145E-3,-3.4946072E-4,-1.662335E-2,-2.603617E-4,4.769364E-3,-1.6937101E-2],"split_indices":[4,3,3,6,6,6,0,0,0,0,0,0,0],"split_type":[0,0,0,0,0,0,0,0,0,0,0,0,0],"sum_hessian":[4.1759207E2,3.9170248E2,2.5889578E1,2.4445258E2,1.4724992E2,2.4222172E1,1.6674056E0,1.0923726E2,1.3521532E2,2.0274462E1,1.26975464E2,9.429023E0,1.479315E1],"tree_param":{"num_deleted":"0","num_feature":"7","num_nodes":"13","size_leaf_vector":"1"}},{"base_weights":[8.982405E-4,-3.2197917E-3,6.0655814E-2,9.116513E-3,-2.368141E-2,-7.8203894E-2,1.2838642E-1,4.261559E-4,4.8495024E-3,-4.4539486E-4,-1.8467737E-2,-2.5809867E-2,-2.0942942E-3],"categories":[],"categories_nodes":[],"categories_segments":[],"categories_sizes":[],"default_left":[0,0,0,0,0,0,0,0,0,0,0,0,0],"id":68,"left_children":[1,3,5,7,9,11,-1,-1,-1,-1,-1,-1,-1],"loss_changes":[1.0317938E-1,9.92814E-2,4.691638E0,4.6741035E-2,4.569925E-1,2.5435686E-1,0E0,0E0,0E0,0E0,0E0,0E0,0E0],"parents":[2147483647,0,0,1,1,2,2,3,3,4,4,5,5],"right_children":[2,4,6,8,10,12,-1,-1,-1,-1,-1,-1,-1],"split_conditions":[1E0,1E0,1E0,1E0,1E0,1E0,1.2838642E-1,4.261559E-4,4.8495024E-3,-4.4539486E-4,-1.8467737E-2,-2.5809867E-2,-2.0942942E-3],"split_indices":[4,3,3,5,2,0,0,0,0,0,0,0,0],"split_type":[0,0,0,0,0,0,0,0,0,0,0,0,0],"sum_hessian":[4.1749225E2,3.9146182E2,2.6030418E1,2.4456694E2,1.468949E2,2.4217314E1,1.8131044E0,2.1871048E2,2.5856468E1,1.3214117E2,1.475372E1,5.0003796E0,1.9216934E1],"tree_param":{"num_deleted":"0","num_feature":"7","num_nodes":"13","size_leaf_vector":"1"}},{"base_weights":[9.892082E-4,-2.9408643E-3,5.7784535E-2,-2.4501761E-2,7.4740523E-3,-7.162146E-2,1.1447477E-1,8.529517E-4,-6.455235E-3,-1.4722904E-3,3.167372E-3,4.8835566E-3,-1.4671013E-2],"categories":[],"categories_nodes":[],"categories_segments":[],"categories_sizes":[],"default_left":[0,0,0,0,0,0,0,0,0,0,0,0,0],"id":69,"left_children":[1,3,5,7,9,11,-1,-1,-1,-1,-1,-1,-1],"loss_changes":[9.354348E-2,8.8253625E-2,3.896916E0,1.6985577E-1,1.4293271E-1,2.3489338E-1,0E0,0E0,0E0,0E0,0E0,0E0,0E0],"parents":[2147483647,0,0,1,1,2,2,3,3,4,4,5,5],"right_children":[2,4,6,8,10,12,-1,-1,-1,-1,-1,-1,-1],"split_conditions":[1E0,1E0,1E0,1E0,1E0,1E0,1.1447477E-1,8.529517E-4,-6.455235E-3,-1.4722904E-3,3.167372E-3,4.8835566E-3,-1.4671013E-2],"split_indices":[4,0,3,3,1,6,0,0,0,0,0,0,0],"split_type":[0,0,0,0,0,0,0,0,0,0,0,0,0],"sum_hessian":[4.1732193E2,3.9120023E2,2.6121706E1,1.2697819E2,2.6422205E2,2.4177425E1,1.9442812E0,7.001835E1,5.695983E1,1.3801785E2,1.2620419E2,9.418278E0,1.4759148E1],"tree_param":{"num_deleted":"0","num_feature":"7","num_nodes":"13","size_leaf_vector":"1"}},{"base_weights":[1.1113093E-3,-2.6620473E-3,5.538063E-2,-6.945908E-3,4.6214264E-2,-6.486474E-2,1.0258974E-1,-3.176799E-3,5.2844355E-4,-2.8505055E-3,1.0619494E-2,-2.3111094E-2,-1.2641271E-3],"categories":[],"categories_nodes":[],"categories_segments":[],"categories_sizes":[],"default_left":[0,0,0,0,0,0,0,0,0,0,0,0,0],"id":70,"left_children":[1,3,5,7,9,11,-1,-1,-1,-1,-1,-1,-1],"loss_changes":[8.5791975E-2,8.239707E-2,3.244891E0,1.098455E-1,1.4518426E-1,2.1563181E-1,0E0,0E0,0E0,0E0,0E0,0E0,0E0],"parents":[2147483647,0,0,1,1,2,2,3,3,4,4,5,5],"right_children":[2,4,6,8,10,12,-1,-1,-1,-1,-1,-1,-1],"split_conditions":[1E0,1E0,1E0,1E0,1E0,1E0,1.0258974E-1,-3.176799E-3,5.2844355E-4,-2.8505055E-3,1.0619494E-2,-2.3111094E-2,-1.2641271E-3],"split_indices":[4,5,3,0,6,0,0,0,0,0,0,0,0],"split_type":[0,0,0,0,0,0,0,0,0,0,0,0,0],"sum_hessian":[4.172322E2,3.9099707E2,2.6235155E1,3.602777E2,3.0719362E1,2.417329E1,2.0618649E0,1.1839393E2,2.4188377E2,1.3912724E1,1.6806639E1,4.9596157E0,1.9213675E1],"tree_param":{"num_deleted":"0","num_feature":"7","num_nodes":"13","size_leaf_vector":"1"}},{"base_weights":[1.1845884E-3,-2.38544E-3,5.2368402E-2,-1.5358237E-2,1.108245E-2,-5.944506E-2,9.233498E-2,3.246622E-4,-5.348229E-3,-2.0425941E-3,2.7397403E-3,4.8802416E-3,-1.2732695E-2],"categories":[],"categories_nodes":[],"categories_segments":[],"categories_sizes":[],"default_left":[0,0,0,0,0,0,0,0,0,0,0,0,0],"id":71,"left_children":[1,3,5,7,9,11,-1,-1,-1,-1,-1,-1,-1],"loss_changes":[7.652501E-2,6.862475E-2,2.7140403E0,1.4202467E-1,9.9677585E-2,1.9092815E-1,0E0,0E0,0E0,0E0,0E0,0E0,0E0],"parents":[2147483647,0,0,1,1,2,2,3,3,4,4,5,5],"right_children":[2,4,6,8,10,12,-1,-1,-1,-1,-1,-1,-1],"split_conditions":[1E0,1E0,1E0,1E0,1E0,1E0,9.233498E-2,3.246622E-4,-5.348229E-3,-2.0425941E-3,2.7397403E-3,4.8802416E-3,-1.2732695E-2],"split_indices":[4,1,3,3,0,6,0,0,0,0,0,0,0],"split_type":[0,0,0,0,0,0,0,0,0,0,0,0,0],"sum_hessian":[4.1710907E2,3.9080417E2,2.6304873E1,1.9898944E2,1.9181474E2,2.4137886E1,2.1669858E0,1.343435E2,6.464593E1,6.5351715E1,1.2646303E2,9.411291E0,1.4726595E1],"tree_param":{"num_deleted":"0","num_feature":"7","num_nodes":"13","size_leaf_vector":"1"}},{"base_weights":[1.2445655E-3,-2.16212E-3,4.989648E-2,-5.9758816E-3,4.1281115E-2,-5.3825215E-2,8.340839E-2,1.21210665E-4,-3.5665154E-3,-2.6097603E-3,9.5331855E-3,-2.072196E-2,-6.2172115E-4],"categories":[],"categories_nodes":[],"categories_segments":[],"categories_sizes":[],"default_left":[0,0,0,0,0,0,0,0,0,0,0,0,0],"id":72,"left_children":[1,3,5,7,9,11,-1,-1,-1,-1,-1,-1,-1],"loss_changes":[6.938839E-2,6.512902E-2,2.273161E0,7.705663E-2,1.1804509E-1,1.8226436E-1,0E0,0E0,0E0,0E0,0E0,0E0,0E0],"parents":[2147483647,0,0,1,1,2,2,3,3,4,4,5,5],"right_children":[2,4,6,8,10,12,-1,-1,-1,-1,-1,-1,-1],"split_conditions":[1E0,1E0,1E0,1E0,1E0,1E0,8.340839E-2,1.21210665E-4,-3.5665154E-3,-2.6097603E-3,9.5331855E-3,-2.072196E-2,-6.2172115E-4],"split_indices":[4,5,3,2,6,0,0,0,0,0,0,0,0],"split_type":[0,0,0,0,0,0,0,0,0,0,0,0,0],"sum_hessian":[4.170027E2,3.906073E2,2.6395395E1,3.5987714E2,3.0730173E1,2.4134563E1,2.2608314E0,2.9050333E2,6.937379E1,1.390883E1,1.6821342E1,4.9222636E0,1.9212301E1],"tree_param":{"num_deleted":"0","num_feature":"7","num_nodes":"13","size_leaf_vector":"1"}},{"base_weights":[1.2671138E-3,-1.9389259E-3,4.6943516E-2,7.270998E-3,-1.7316092E-2,-4.9365733E-2,7.5577416E-2,2.3896182E-3,-6.252342E-4,-1.4395821E-2,3.4667176E-4,4.78988E-3,-1.1071142E-2],"categories":[],"categories_nodes":[],"categories_segments":[],"categories_sizes":[],"default_left":[0,0,0,0,0,0,0,0,0,0,0,0,0],"id":73,"left_children":[1,3,5,7,9,11,-1,-1,-1,-1,-1,-1,-1],"loss_changes":[6.1287154E-2,5.556311E-2,1.9110856E0,5.5349037E-2,3.8720012E-1,1.5508783E-1,0E0,0E0,0E0,0E0,0E0,0E0,0E0],"parents":[2147483647,0,0,1,1,2,2,3,3,4,4,5,5],"right_children":[2,4,6,8,10,12,-1,-1,-1,-1,-1,-1,-1],"split_conditions":[1E0,1E0,1E0,1E0,1E0,1E0,7.5577416E-2,2.3896182E-3,-6.252342E-4,-1.4395821E-2,3.4667176E-4,4.78988E-3,-1.1071142E-2],"split_indices":[4,3,3,6,6,6,0,0,0,0,0,0,0],"split_type":[0,0,0,0,0,0,0,0,0,0,0,0,0],"sum_hessian":[4.168912E2,3.9044342E2,2.6447786E1,2.4451935E2,1.4592406E2,2.4103222E1,2.3445635E0,1.09336876E2,1.3518248E2,1.9735714E1,1.2618835E2,9.407185E0,1.4696038E1],"tree_param":{"num_deleted":"0","num_feature":"7","num_nodes":"13","size_leaf_vector":"1"}},{"base_weights":[1.2648898E-3,-1.7826401E-3,4.4549484E-2,-1.3151977E-2,9.988384E-3,-4.4688262E-2,6.8660975E-2,2.4275573E-4,-4.533838E-3,-1.8333597E-3,2.461396E-3,-1.8602526E-2,-1.3039334E-4],"categories":[],"categories_nodes":[],"categories_segments":[],"categories_sizes":[],"default_left":[0,0,0,0,0,0,0,0,0,0,0,0,0],"id":74,"left_children":[1,3,5,7,9,11,-1,-1,-1,-1,-1,-1,-1],"loss_changes":[5.5192668E-2,5.2496683E-2,1.6074681E0,1.0013449E-1,8.03202E-2,1.5367019E-1,0E0,0E0,0E0,0E0,0E0,0E0,0E0],"parents":[2147483647,0,0,1,1,2,2,3,3,4,4,5,5],"right_children":[2,4,6,8,10,12,-1,-1,-1,-1,-1,-1,-1],"split_conditions":[1E0,1E0,1E0,1E0,1E0,1E0,6.8660975E-2,2.4275573E-4,-4.533838E-3,-1.8333597E-3,2.461396E-3,-1.8602526E-2,-1.3039334E-4],"split_indices":[4,1,3,3,0,0,0,0,0,0,0,0,0],"split_type":[0,0,0,0,0,0,0,0,0,0,0,0,0],"sum_hessian":[4.16806E2,3.90286E2,2.6519974E1,1.9847076E2,1.9181525E2,2.41007E1,2.4192748E0,1.3435974E2,6.411103E1,6.523538E1,1.26579865E2,4.888183E0,1.9212517E1],"tree_param":{"num_deleted":"0","num_feature":"7","num_nodes":"13","size_leaf_vector":"1"}},{"base_weights":[1.2412164E-3,-1.6167337E-3,4.1756924E-2,-4.9470584E-3,3.6254182E-2,-4.1021165E-2,6.251638E-2,-2.4224455E-3,4.4925735E-4,-2.5642978E-3,8.593871E-3,-1.714225E-2,-1.1800202E-4],"categories":[],"categories_nodes":[],"categories_segments":[],"categories_sizes":[],"default_left":[0,0,0,0,0,0,0,0,0,0,0,0,0],"id":75,"left_children":[1,3,5,7,9,11,-1,-1,-1,-1,-1,-1,-1],"loss_changes":[4.8431776E-2,4.9508832E-2,1.3565582E0,6.568934E-2,9.979895E-2,1.3006039E-1,0E0,0E0,0E0,0E0,0E0,0E0,0E0],"parents":[2147483647,0,0,1,1,2,2,3,3,4,4,5,5],"right_children":[2,4,6,8,10,12,-1,-1,-1,-1,-1,-1,-1],"split_conditions":[1E0,1E0,1E0,1E0,1E0,1E0,6.251638E-2,-2.4224455E-3,4.4925735E-4,-2.5642978E-3,8.593871E-3,-1.714225E-2,-1.1800202E-4],"split_indices":[4,5,3,0,6,0,0,0,0,0,0,0,0],"split_type":[0,0,0,0,0,0,0,0,0,0,0,0,0],"sum_hessian":[4.1668268E2,3.9012372E2,2.6558962E1,3.5938885E2,3.073487E1,2.4072994E1,2.4859684E0,1.1762058E2,2.4176826E2,1.3900928E1,1.6833942E1,4.8607984E0,1.9212196E1],"tree_param":{"num_deleted":"0","num_feature":"7","num_nodes":"13","size_leaf_vector":"1"}},{"base_weights":[1.2296329E-3,-1.4460973E-3,3.9099786E-2,4.159753E-3,-2.430005E-2,-3.7655E-2,5.7029754E-2,-1.4139927E-3,1.368894E-3,9.316892E-4,-1.6068524E-2,4.897723E-3,-9.275825E-3],"categories":[],"categories_nodes":[],"categories_segments":[],"categories_sizes":[],"default_left":[0,0,0,0,0,0,0,0,0,0,0,0,0],"id":76,"left_children":[1,3,5,7,9,11,-1,-1,-1,-1,-1,-1,-1],"loss_changes":[4.2369775E-2,5.01924E-2,1.1464831E0,5.509299E-2,3.552647E-1,1.2411101E-1,0E0,0E0,0E0,0E0,0E0,0E0,0E0],"parents":[2147483647,0,0,1,1,2,2,3,3,4,4,5,5],"right_children":[2,4,6,8,10,12,-1,-1,-1,-1,-1,-1,-1],"split_conditions":[1E0,1E0,1E0,1E0,1E0,1E0,5.7029754E-2,-1.4139927E-3,1.368894E-3,9.316892E-4,-1.6068524E-2,4.897723E-3,-9.275825E-3],"split_indices":[4,2,3,0,3,6,0,0,0,0,0,0,0],"split_type":[0,0,0,0,0,0,0,0,0,0,0,0,0],"sum_hessian":[4.1657727E2,3.8998456E2,2.6592693E1,3.138245E2,7.616008E1,2.4047142E1,2.5455503E0,1.07294395E2,2.0653009E2,6.1847313E1,1.4312767E1,9.392156E0,1.4654986E1],"tree_param":{"num_deleted":"0","num_feature":"7","num_nodes":"13","size_leaf_vector":"1"}},{"base_weights":[1.1879387E-3,-1.8621153E-3,3.230248E-2,-1.2179173E-2,8.671462E-3,5.657564E-2,1.2075354E-2,-5.846312E-3,8.515642E-4,4.8991437E-3,-2.727659E-4,3.3016767E-2,-9.618095E-3,-2.4037814E-2,9.85515E-3],"categories":[],"categories_nodes":[],"categories_segments":[],"categories_sizes":[],"default_left":[0,0,0,0,0,0,0,0,0,0,0,0,0,0,0],"id":77,"left_children":[1,3,5,7,9,11,13,-1,-1,-1,-1,-1,-1,-1,-1],"loss_changes":[3.9680403E-2,4.1528817E-2,1.7643038E-2,1.853385E-1,8.708634E-2,7.2948164E-1,4.9592593E-1,0E0,0E0,0E0,0E0,0E0,0E0,0E0,0E0],"parents":[2147483647,0,0,1,1,2,2,3,3,4,4,5,5,6,6],"right_children":[2,4,6,8,10,12,14,-1,-1,-1,-1,-1,-1,-1,-1],"split_conditions":[1E0,1E0,1E0,1E0,1E0,1E0,1E0,-5.846312E-3,8.515642E-4,4.8991437E-3,-2.727659E-4,3.3016767E-2,-9.618095E-3,-2.4037814E-2,9.85515E-3],"split_indices":[5,1,6,0,6,0,0,0,0,0,0,0,0,0,0],"split_type":[0,0,0,0,0,0,0,0,0,0,0,0,0,0,0],"sum_hessian":[4.1649017E2,3.8016412E2,3.6326057E1,1.91977E2,1.881871E2,1.5694804E1,2.0631254E1,5.875236E1,1.3322464E2,4.0750427E1,1.4743668E2,5.207179E0,1.0487625E1,4.809875E0,1.5821379E1],"tree_param":{"num_deleted":"0","num_feature":"7","num_nodes":"15","size_leaf_vector":"1"}},{"base_weights":[1.0862583E-3,-1.4855616E-3,3.740097E-2,3.6195177E-3,-2.2338957E-2,-3.3833943E-2,5.222826E-2,-1.1334117E-3,1.1374411E-3,8.068584E-4,-1.47653045E-2,4.4192523E-3,-8.360687E-3],"categories":[],"categories_nodes":[],"categories_segments":[],"categories_sizes":[],"default_left":[0,0,0,0,0,0,0,0,0,0,0,0,0],"id":78,"left_children":[1,3,5,7,9,11,-1,-1,-1,-1,-1,-1,-1],"loss_changes":[3.9035514E-2,4.1676816E-2,9.7241884E-1,3.662794E-2,2.9452628E-1,1.0093981E-1,0E0,0E0,0E0,0E0,0E0,0E0,0E0],"parents":[2147483647,0,0,1,1,2,2,3,3,4,4,5,5],"right_children":[2,4,6,8,10,12,-1,-1,-1,-1,-1,-1,-1],"split_conditions":[1E0,1E0,1E0,1E0,1E0,1E0,5.222826E-2,-1.1334117E-3,1.1374411E-3,8.068584E-4,-1.47653045E-2,4.4192523E-3,-8.360687E-3],"split_indices":[4,2,3,0,3,6,0,0,0,0,0,0,0],"split_type":[0,0,0,0,0,0,0,0,0,0,0,0,0],"sum_hessian":[4.1636707E2,3.8972565E2,2.6641407E1,3.137448E2,7.5980835E1,2.4039883E1,2.6015244E0,1.0698529E2,2.0675952E2,6.1897083E1,1.4083752E1,9.406271E0,1.4633613E1],"tree_param":{"num_deleted":"0","num_feature":"7","num_nodes":"13","size_leaf_vector":"1"}},{"base_weights":[1.0529982E-3,-1.3773326E-3,3.5299566E-2,-1.0653335E-2,8.199644E-3,-3.0612394E-2,4.778331E-2,1.5313675E-4,-3.605318E-3,3.7047982E-3,-1.8815017E-5,-1.4511592E-2,3.858361E-4],"categories":[],"categories_nodes":[],"categories_segments":[],"categories_sizes":[],"default_left":[0,0,0,0,0,0,0,0,0,0,0,0,0],"id":79,"left_children":[1,3,5,7,9,11,-1,-1,-1,-1,-1,-1,-1],"loss_changes":[3.477957E-2,3.4786545E-2,8.222473E-1,6.1597764E-2,4.664655E-2,9.938842E-2,0E0,0E0,0E0,0E0,0E0,0E0,0E0],"parents":[2147483647,0,0,1,1,2,2,3,3,4,4,5,5],"right_children":[2,4,6,8,10,12,-1,-1,-1,-1,-1,-1,-1],"split_conditions":[1E0,1E0,1E0,1E0,1E0,1E0,4.778331E-2,1.5313675E-4,-3.605318E-3,3.7047982E-3,-1.8815017E-5,-1.4511592E-2,3.858361E-4],"split_indices":[4,1,3,3,6,0,0,0,0,0,0,0,0],"split_type":[0,0,0,0,0,0,0,0,0,0,0,0,0],"sum_hessian":[4.1628638E2,3.8959808E2,2.668831E1,1.9785178E2,1.9174629E2,2.403875E1,2.6495614E0,1.3434439E2,6.350739E1,4.2422993E1,1.493233E2,4.819548E0,1.92192E1],"tree_param":{"num_deleted":"0","num_feature":"7","num_nodes":"13","size_leaf_vector":"1"}},{"base_weights":[1.025132E-3,-1.6973052E-3,2.8774414E-2,-3.7838093E-3,3.230264E-2,4.6740025E-2,3.1994316E-3,1.9653859E-4,-2.7691207E-3,-3.521308E-3,4.2246114E-2,3.2053474E-2,-7.5748E-3,-3.2302815E-2,1.3631614E-2],"categories":[],"categories_nodes":[],"categories_segments":[],"categories_sizes":[],"default_left":[0,0,0,0,0,0,0,0,0,0,0,0,0,0,0],"id":80,"left_children":[1,3,5,7,9,11,13,-1,-1,-1,-1,-1,-1,-1,-1],"loss_changes":[3.156457E-2,2.7139911E-2,1.7001262E-2,4.949757E-2,5.976966E-1,7.5711936E-1,7.595003E-1,0E0,0E0,0E0,0E0,0E0,0E0,0E0,0E0],"parents":[2147483647,0,0,1,1,2,2,3,3,4,4,5,5,6,6],"right_children":[2,4,6,8,10,12,14,-1,-1,-1,-1,-1,-1,-1,-1],"split_conditions":[1E0,1E0,1E0,1E0,1E0,1E0,1E0,1.9653859E-4,-2.7691207E-3,-3.521308E-3,4.2246114E-2,3.2053474E-2,-7.5748E-3,-3.2302815E-2,1.3631614E-2],"split_indices":[5,4,1,2,3,0,0,0,0,0,0,0,0,0,0],"split_type":[0,0,0,0,0,0,0,0,0,0,0,0,0,0,0],"sum_hessian":[4.1617447E2,3.7984714E2,3.6327354E1,3.5872183E2,2.1125282E1,2.0851954E1,1.5475401E1,2.899203E2,6.880157E1,1.878444E1,2.3408422E0,5.9454217E0,1.4906532E1,4.071288E0,1.1404113E1],"tree_param":{"num_deleted":"0","num_feature":"7","num_nodes":"15","size_leaf_vector":"1"}},{"base_weights":[1.0188393E-3,-1.093981E-3,3.0707065E-2,-9.517982E-3,7.5924867E-3,-2.6708016E-2,4.0704098E-2,1.410996E-4,-3.2375609E-3,3.4268678E-3,-1.7501687E-5,-1.3648197E-2,6.1575597E-4],"categories":[],"categories_nodes":[],"categories_segments":[],"categories_sizes":[],"default_left":[0,0,0,0,0,0,0,0,0,0,0,0,0],"id":81,"left_children":[1,3,5,7,9,11,-1,-1,-1,-1,-1,-1,-1],"loss_changes":[2.6195304E-2,2.863498E-2,6.103567E-1,4.965935E-2,3.9941117E-2,9.1073014E-2,0E0,0E0,0E0,0E0,0E0,0E0,0E0],"parents":[2147483647,0,0,1,1,2,2,3,3,4,4,5,5],"right_children":[2,4,6,8,10,12,-1,-1,-1,-1,-1,-1,-1],"split_conditions":[1E0,1E0,1E0,1E0,1E0,1E0,4.0704098E-2,1.410996E-4,-3.2375609E-3,3.4268678E-3,-1.7501687E-5,-1.3648197E-2,6.1575597E-4],"split_indices":[4,1,3,3,6,0,0,0,0,0,0,0,0],"split_type":[0,0,0,0,0,0,0,0,0,0,0,0,0],"sum_hessian":[4.1608002E2,3.8933536E2,2.6744656E1,1.976052E2,1.9173016E2,2.4010538E1,2.7341175E0,1.3432047E2,6.328473E1,4.2468254E1,1.492619E2,4.8058467E0,1.920469E1],"tree_param":{"num_deleted":"0","num_feature":"7","num_nodes":"13","size_leaf_vector":"1"}},{"base_weights":[9.812202E-4,-1.4530345E-3,2.5781952E-2,-3.2660104E-3,2.8015193E-2,4.361781E-2,4.7192757E-4,1.9711662E-4,-2.5090333E-3,-3.003127E-3,3.5588425E-2,2.9273508E-2,-6.8613063E-3,-3.007007E-2,1.2326061E-2],"categories":[],"categories_nodes":[],"categories_segments":[],"categories_sizes":[],"default_left":[0,0,0,0,0,0,0,0,0,0,0,0,0,0,0],"id":82,"left_children":[1,3,5,7,9,11,13,-1,-1,-1,-1,-1,-1,-1,-1],"loss_changes":[2.5211003E-2,2.0428106E-2,1.6827889E-2,4.113834E-2,4.3254706E-1,6.31909E-1,6.45011E-1,0E0,0E0,0E0,0E0,0E0,0E0,0E0,0E0],"parents":[2147483647,0,0,1,1,2,2,3,3,4,4,5,5,6,6],"right_children":[2,4,6,8,10,12,14,-1,-1,-1,-1,-1,-1,-1,-1],"split_conditions":[1E0,1E0,1E0,1E0,1E0,1E0,1E0,1.9711662E-4,-2.5090333E-3,-3.003127E-3,3.5588425E-2,2.9273508E-2,-6.8613063E-3,-3.007007E-2,1.2326061E-2],"split_indices":[5,4,1,2,3,0,0,0,0,0,0,0,0,0,0],"split_type":[0,0,0,0,0,0,0,0,0,0,0,0,0,0,0],"sum_hessian":[4.1597858E2,3.7965582E2,3.6322765E1,3.584896E2,2.1166214E1,2.0883158E1,1.5439609E1,2.898452E2,6.8644394E1,1.8754324E1,2.4118907E0,5.986556E0,1.4896603E1,4.0520144E0,1.1387594E1],"tree_param":{"num_deleted":"0","num_feature":"7","num_nodes":"15","size_leaf_vector":"1"}},{"base_weights":[9.6353854E-4,-1.2304198E-3,2.3311017E-2,-1.199739E-2,3.8688823E-3,4.020122E-2,-6.6691655E-4,-9.060885E-3,2.131541E-3,3.6975113E-3,-1.3065296E-3,2.6618628E-2,-6.221436E-3,-2.7762694E-2,1.1206663E-2],"categories":[],"categories_nodes":[],"categories_segments":[],"categories_sizes":[],"default_left":[0,0,0,0,0,0,0,0,0,0,0,0,0,0,0],"id":83,"left_children":[1,3,5,7,9,11,13,-1,-1,-1,-1,-1,-1,-1,-1],"loss_changes":[2.0468555E-2,2.0941269E-2,1.5140837E-2,3.2287803E-1,1.4569335E-1,5.2370274E-1,5.4338974E-1,0E0,0E0,0E0,0E0,0E0,0E0,0E0,0E0],"parents":[2147483647,0,0,1,1,2,2,3,3,4,4,5,5,6,6],"right_children":[2,4,6,8,10,12,14,-1,-1,-1,-1,-1,-1,-1,-1],"split_conditions":[1E0,1E0,1E0,1E0,1E0,1E0,1E0,-9.060885E-3,2.131541E-3,3.6975113E-3,-1.3065296E-3,2.6618628E-2,-6.221436E-3,-2.7762694E-2,1.1206663E-2],"split_indices":[5,0,1,6,6,0,0,0,0,0,0,0,0,0,0],"split_type":[0,0,0,0,0,0,0,0,0,0,0,0,0,0,0],"sum_hessian":[4.158898E2,3.795705E2,3.63193E1,1.2155638E2,2.580141E2,2.0912098E1,1.5407204E1,3.5667755E1,8.5888626E1,8.691408E1,1.7110002E2,6.022991E0,1.4889108E1,4.0339785E0,1.1373225E1],"tree_param":{"num_deleted":"0","num_feature":"7","num_nodes":"15","size_leaf_vector":"1"}},{"base_weights":[8.602743E-4,-9.0076117E-4,2.5535211E-2,-8.5915E-3,7.0213345E-3,-2.463914E-2,3.48089E-2,-1.07997155E-4,-3.5523598E-3,3.2266385E-3,-3.3298453E-5,-1.31413145E-2,7.238504E-4],"categories":[],"categories_nodes":[],"categories_segments":[],"categories_sizes":[],"default_left":[0,0,0,0,0,0,0,0,0,0,0,0,0],"id":84,"left_children":[1,3,5,7,9,11,-1,-1,-1,-1,-1,-1,-1],"loss_changes":[1.8134736E-2,2.3822255E-2,4.584862E-1,4.0086746E-2,3.57809E-2,8.6014695E-2,0E0,0E0,0E0,0E0,0E0,0E0,0E0],"parents":[2147483647,0,0,1,1,2,2,3,3,4,4,5,5],"right_children":[2,4,6,8,10,12,-1,-1,-1,-1,-1,-1,-1],"split_conditions":[1E0,1E0,1E0,1E0,1E0,1E0,3.48089E-2,-1.07997155E-4,-3.5523598E-3,3.2266385E-3,-3.3298453E-5,-1.31413145E-2,7.238504E-4],"split_indices":[4,1,3,2,6,0,0,0,0,0,0,0,0],"split_type":[0,0,0,0,0,0,0,0,0,0,0,0,0],"sum_hessian":[4.1580786E2,3.8900806E2,2.6799778E1,1.9734338E2,1.9166469E2,2.399144E1,2.8083389E0,1.5511966E2,4.2223732E1,4.247478E1,1.4918991E2,4.7980323E0,1.9193407E1],"tree_param":{"num_deleted":"0","num_feature":"7","num_nodes":"13","size_leaf_vector":"1"}},{"base_weights":[8.2471804E-4,-1.1837472E-3,2.1286393E-2,-1.0903447E-2,3.4160793E-3,3.8272973E-2,-2.764264E-3,-8.248846E-3,1.9193199E-3,3.2719213E-3,-1.1618648E-3,2.4441674E-2,-5.5705844E-3,-2.5847116E-2,1.01238E-2],"categories":[],"categories_nodes":[],"categories_segments":[],"categories_sizes":[],"default_left":[0,0,0,0,0,0,0,0,0,0,0,0,0,0,0],"id":85,"left_children":[1,3,5,7,9,11,13,-1,-1,-1,-1,-1,-1,-1,-1],"loss_changes":[1.715195E-2,1.704637E-2,1.5345432E-2,2.6539096E-1,1.1448395E-1,4.3845677E-1,4.616037E-1,0E0,0E0,0E0,0E0,0E0,0E0,0E0,0E0],"parents":[2147483647,0,0,1,1,2,2,3,3,4,4,5,5,6,6],"right_children":[2,4,6,8,10,12,14,-1,-1,-1,-1,-1,-1,-1,-1],"split_conditions":[1E0,1E0,1E0,1E0,1E0,1E0,1E0,-8.248846E-3,1.9193199E-3,3.2719213E-3,-1.1618648E-3,2.4441674E-2,-5.5705844E-3,-2.5847116E-2,1.01238E-2],"split_indices":[5,0,1,6,6,0,0,0,0,0,0,0,0,0,0],"split_type":[0,0,0,0,0,0,0,0,0,0,0,0,0,0,0],"sum_hessian":[4.1574408E2,3.7944125E2,3.6302826E1,1.2144678E2,2.5799448E2,2.0929394E1,1.5373433E1,3.5431652E1,8.601513E1,8.708566E1,1.7090881E2,